2
128
64
-240.49311748052108
-57.49009685732544
-72.08710730722905
-65.34064475040381
-116.59456216325192
-7.054538259375633
-9.225213577445345
-15.72822241982171
-60.55714414739687
-3.1664999675202754
-9.150776229310528
-0.2547201988892777
-52.63967861495846
-2.3782872455039143
-10.442756460817652
4.685009015326237
-128.0994611708648
5.774156335062462
4.215827520509472
-11.03373197153971
-61.09930182613882
0.8513378268234371
-0.27266881364362155
-11.119278511435967
11.86758365294567
-3.498895139902697
0.4656297431583953
-0.1030997862247819
15.74316983440707
-0.0007985592023336837
4.2580390902274345
14.224562210880165
-73.15732175820789
-4.826176183252912
-12.183565914106689
-10.4153691226198
17.070892295456336
3.865183679405974
-10.345234926193712
0.9702501286901701
-18.062907678435128
13.71937362881316
2.026460231110349
0.5507384927929154
-17.934493734197776
0.7626386251893461
-5.698112496996996
-2.9939178058431355
-72.30586415942967
-14.300472358106834
-14.16347473381551
-14.60228031066964
8.278324073993218
-6.5696808278419985
-0.37763154094291806
-11.908260251157605
-18.953230436136547
2.0953588318996874
3.9285224461741373
-14.535163299941521
-22.116057512394924
-8.317041938301136
-8.815915439454699
-14.88454743668283
999601.2429728671
-31.46652687148877
-39.83720181884571
-41.35919404704308
-79.88937280378954
-0.7589303167400872
-4.700926136314168
1.504446514148172
-30.401873319030337
-0.5513606903814974
-4.5299889969950735
3.6956379128966557
-27.171359451804868
-7.975765188188324
-6.420317837535256
6.1100569671431755
-91.62674209184584
1.1315014477375813
7.924914931329022
-1.6334237834128196
-21.579029008169424
0.8819247889658286
1.5348580239861802
-13.032764359576515
7.192623728050613
3.8110218279254413
2.1517426552324377
-1.0639293584634175
7.599897644869354
5.8142920572262815
3.1698413652263713
9.137518322320142
-40.07785306561912
3.0510357100518353
-9.37379588880382
2.3611835430410975
10.420703775032027
-3.7564383296537613
9.55608208685061
2.575626042357741
4.22205378717287
9.636691275358112
0.24616505989711782
-2.7419016220158627
-10.156138327820269
-0.5150667402060637
-7.198301549327942
1.3918012481597204
-44.96389643496735
-6.825744882921542
-2.867385570341893
-2.98890946712455
7.622303047252684
-3.0512133069668574
-4.808628753744909
-0.7758689856056454
-5.87737395087157
1.192489038505904
5.039266356409266
-12.654073958299872
-11.085915614951903
0.17740102172453648
-3.1715632795574487
-1.0922891808396313
-57.28695734636645
-238.1628287120101
-88.96930138443501
-79.93860577774606
-3.164182010969218
-103.8510276185628
-9.858301969606634
-1.4027968952264966
-0.7149398361074771
-54.415001700237454
-6.351493339847178
8.17719576350381
-12.732763520985001
-52.04390677566273
-3.989316997224068
-0.7779294856018443
-9.569377010191877
-113.54500124347447
-12.502687102494818
-24.144572664224622
-18.47457930775423
-68.69874907044728
-12.287174585595963
-20.488256260862777
-7.154581771122804
15.847122311511693
-0.01715325491906741
3.2380841698610827
-13.839580776916293
20.05960725962707
7.043559670276113
3.6132905169304834
6.592971520599589
-47.272565232113585
-4.9616301523022
-13.887737433381195
-6.116741390975482
18.212663012134637
3.0529624269880253
-11.302901799434471
2.927260108170679
-12.15942283082004
3.3490698753208425
1.2749763479213347
-5.295508697049613
-11.508792420160612
-3.116793733087514
-3.5527416579071196
-11.3448941625025
-63.67836148036884
-18.259453430246168
-7.5852515937751575
-21.607301385192073
12.683019573105845
4.915195614572565
-0.7543165997155292
-13.983137428753585
-13.84653882949275
-12.760028458107843
5.279605266545853
-14.979624532150806
-11.973981151990525
-6.707860439597347
1.993136665945329
-41.505490249368336
999608.5420084817
-56.90281997157176
-53.81046363600771
8.168686431145858
-80.4705432748507
4.858240642394175
2.2580418377662226
-4.09671665237681
-24.408669652036515
1.2369536329368358
8.426229803621288
-6.701453447927725
-32.83712634496593
-6.488768424351334
3.177394041128482
6.98328672841862
-86.72376996504549
-1.0588115189831708
-1.476918990414033
-12.597353468996085
-16.742639865293768
-4.483254752019863
-9.661566826638184
-6.423659679043577
5.759970986316222
9.179142454447561
4.206148718400222
-4.282442065415837
9.13620417274114
4.05694890769688
1.5426994189922163
8.165606656321298
-31.49840983267624
4.672438210720953
-7.63576763122066
-0.2678431364959903
7.856807692943414
9.60974050063989
-5.626003243437147
6.091952104671342
-6.8427395215953535
-9.640121569949546
-0.7283098220510379
-1.1050494539283122
-4.228482923164774
3.3768689062676795
-5.818738845474406
-6.375765604166237
-27.246948108095456
1.1719908956287626
-2.488003608872079
-7.01278171391119
9.451609042701863
-5.76817718837474
3.6622612179587075
-1.4932895870225447
-9.633571251977592
-5.615636459529898
4.555981105837054
-10.487942650598882
-4.17122187088918
0.05752351501321766
3.5777306836849254
-66.56711944463892
-65.63276383135731
-247.32948362253325
-60.90983466222987
-18.266415829796422
-7.525343200253962
-125.21004510132596
-14.355399623882716
-13.907004383110822
-8.970671463893511
-71.52047363824833
-11.13598928703835
-9.873905268252319
1.9869389585343722
-65.81664850138843
-1.5596480185066033
-11.254274828118728
-12.365814031970958
-122.20283823990991
-6.19916486467763
-11.95521808831956
-5.973788463843103
-55.71988382680668
-8.3952312314097
-12.824383423929923
-9.844536875451398
5.474254883165869
-5.589967812084386
-0.8051751377160192
-6.847649611958677
4.964731181156644
-5.664992161341452
-17.659901294258177
-25.630164678187885
-68.81659419069418
-10.664669535830283
-0.14819203954734556
-5.975568994286103
32.46679078154835
4.772505278834797
-4.25341633537872
5.341882918194755
-6.384171266373243
11.412900202823533
-10.397136841062954
-3.621881726053355
-20.63871296444243
1.4730540815481872
-1.4894892028344562
-2.195861731760952
-64.66161185005093
-8.58203538556376
2.5877813406868966
1.590614844395379
20.489620554646446
-0.3258056502605748
-5.174487644662198
3.489087455913018
-21.99034135112913
-5.35030168167862
-4.794768014098804
-4.680214327123538
-30.520738635155322
-11.737488395953092
-48.75872815617548
-44.87941053364595
999596.2378505352
-39.932301246608404
-2.7765879448179174
-6.808302089594535
-85.86878394927297
-2.024823251685594
-4.105289150741598
0.737647689755963
-38.446893426004706
0.8822157858058705
5.7124715940941035
-3.789219770413518
-30.322345388618515
5.379184054165109
5.619473241164757
5.347525040269952
-82.20293901179993
-0.0313822956430584
-10.058393923409993
-6.355110899314086
-15.407459695022418
-6.3638233783493465
-7.030085489518722
-2.815864847238771
1.6253027922876668
0.39396774394737727
2.2435312132190055
5.895347621077342
8.808573530223244
-4.392756429310699
-7.7731578013561125
-10.713775411256561
-34.67163785373501
1.1793318880445156
2.1048509654036334
3.261499693515525
18.581289797296524
1.2037578584683422
-6.585395916273349
8.718302643341556
-2.97350873282949
9.376889083534994
-0.4474784601607849
-8.739613336860172
-3.9611496577159553
3.8313516874413525
5.62128332170781
-7.774318707415572
-36.07737374637578
2.218363134068962
3.0044343964901934
4.439510349285674
13.321566991353658
-4.264420059204248
1.9564416356333634
1.714143023399077
-4.2504641752451215
0.2546844048757039
-0.0008313216713319504
4.518281452135336
-17.890878553310152
-13.243387351235633
-65.47498184450457
-77.49641282340312
-69.7675021590898
-236.7238122179858
-3.5797913087469255
0.9453630102051304
-7.3726939539228
-104.8189884294757
-8.45867248311153
-11.885048423692492
0.5886388033170608
-50.56620904813978
-16.570743465716614
-23.205975168685768
-16.814367634858947
-63.49409293911677
-6.383352500903371
-13.314211108806877
-13.382199110874522
-112.5906005053794
-11.99529669182846
-7.133468728565908
-11.326846238608988
-56.98804218822349
-16.238650043415195
-19.357652453997897
-11.034778229007857
11.073492371969321
-3.2109897830682024
-9.209606417878966
0.6884423525752642
19.801209055964655
-4.7558823156924035
-2.5506556314951796
-0.15218819122777272
-61.61956524533666
-6.817227545666883
1.2512750527096235
0.2818753482740421
3.2469689337070573
-11.012915848176664
-5.066116838035788
6.639232842912415
-18.66637504821332
-6.89211746972422
10.978769739712728
8.604427968249457
-12.714733802051361
-15.254082217023134
-12.370300709430367
-6.699389731559962
-66.34037112242112
-13.924845426278434
1.73952919753186
0.9507610636004125
9.248192786344331
-18.519190869103312
-12.413826030187744
1.0690516935147183
-21.801832125163706
-7.569783187351498
-3.9496111947200077
6.588636682712207
-22.976227015902996
-37.675891910759965
-50.750658923528704
-49.672618262018
999608.7551551501
7.966392318041831
9.534684810674547
9.55627665741975
-82.88014091177601
-1.9431445072759457
-1.3741316811984237
5.572782026826726
-27.482152669025044
-9.171770873148446
-14.97101086681112
-11.954040939171444
-31.05526010342576
1.6566785101075732
-0.82759689338824
2.1057384100220498
-80.82726259791806
-8.975427524124212
-2.3891341908389765
-10.692812726954552
-14.900945596161298
-8.582792438868173
-9.937513344176283
-5.634313270554943
8.675932250528886
1.9999698032040292
4.979046165417453
-0.27948024870639426
10.946157676343574
1.938333540789712
-6.969290068880285
-2.7767473635624333
-36.12760915229123
-4.963483623434568
11.3489132169893
-2.3230850794709514
7.797071639512517
-2.12333820284141
1.54512837444061
3.3026355205689097
-2.3968671742846825
10.834823447574482
0.9699679525346339
10.368248180403917
-4.333680996251541
-1.8852331777801583
-2.425398755691941
0.40609740232602354
-38.39443044984353
-3.778264290709388
0.34667255853686446
-2.5550014610968415
1.350274389956319
-11.596422562669657
3.8592962747119706
4.86948088503078
-6.682904125324667
-2.350421753171731
-0.7421794972489321
1.4612255853964666
-12.334760342606673
-107.55375126161765
-1.5392445010293068
-13.045884417146969
1.8128375577452447
-226.86300541041277
-64.8617053539493
-78.5285443779962
-71.36279899388799
-56.26331185846227
3.4772952148698364
-1.6742460150727658
-2.6409780384037975
-58.142285409744154
-9.371076778823628
2.45538028728104
-0.5157430070269139
-66.18014356595265
-4.8875166712411975
-17.676993296834983
-5.690948472071237
-107.2073163457602
-10.027398152426647
-15.469925478849445
-15.950522091438955
2.5194237446096652
-9.23180533886713
-4.218998240725996
-2.6191474906785097
5.77424493272638
-15.259950642165984
-0.8627518521188011
3.7372689619959814
17.733102961907637
10.256892368738468
0.6102593317683502
-0.023808812519733553
-35.18247468720915
6.155344104584247
-0.2586146635130519
-6.520646952974604
-26.4024118496774
3.5431458759712506
-18.15494840679282
-19.55044126576884
-14.222477008637945
5.919267397347991
0.006668716182453427
-10.075037842749113
6.167118592854607
-23.939946280641067
-12.493838008169362
-8.838666111887024
-46.96473861221461
-7.4390727344214405
-1.564490409125788
-10.472454438398865
-16.497755306347845
2.1312656722589507
-13.05153077611201
-4.3467838013068425
-22.668785554564455
-13.12152006089527
-4.5358522713167115
-13.582242548146072
-86.13521365594517
5.67260633864078
1.6441728655110304
4.394708449310688
999609.995677317
-48.20312093042597
-44.96261180706442
-42.601603291301835
-25.26159513810498
-4.559083907208001
6.9826073674441425
2.045315033068081
-30.333292703679966
-1.7303735644298244
0.17399025418734854
-0.8607394496806263
-25.480216901053364
-6.6539667422044335
-12.870154411071926
3.084353295938178
-88.24040706769017
8.03834419139436
-0.18515701551381608
-2.433718076564196
3.9778991083246003
5.554171638818337
-3.0524335723125646
-0.8045236490687915
1.3575252107475904
-1.2637439307990381
0.2926205604045226
-0.16649786599930605
7.193065593938255
6.359216715232321
1.7634288499318047
3.1871069882293295
-17.36402489257189
11.007280018254859
5.997476874048908
-3.981070499754299
-14.757114752275594
0.8220271938332394
-12.117659438787696
-10.807959781030378
-5.2234856651650245
6.579953520924027
0.00826903071538561
-6.249158750381125
1.4785765278711165
-2.889343039647121
-9.200045112811633
-0.37960214682148335
-23.060440558805453
-11.473549979529707
0.5329505116931423
-2.5587084204224615
-6.772729953333034
2.0830891606981505
-3.2898247999916275
1.6172569455229702
-8.518169428271413
-4.145507343811142
1.5260554222747258
2.7031660763144423
-5.396352999614971
-107.22827104136695
-20.59474420177511
-4.307531928764536
-82.94770505729113
-243.6399117987828
-83.40563747765638
-74.71758331493791
-12.459622428354981
-66.85000532853638
-20.76616800505684
8.40193324986859
3.6954526818355746
-59.097471468173595
-14.415091026524443
2.3590787620187306
-21.11108606459973
-68.81259422961581
-23.91479602712746
-20.98430284359669
-23.547386352239343
-113.40809067653817
-8.436980287743156
-8.252555486936066
-5.371725969259063
6.497167460893307
-5.173920384508501
9.710977743236523
8.38659994329044
7.860752252017009
-6.064065277449237
-1.6909185270889555
-0.39387474642176895
20.413872720882917
2.313969546348763
0.9931528220895713
-11.665189420957713
-42.19938193060601
4.933454046531614
-4.253323044589717
8.98137627581157
-10.12078528895984
-1.6750236732594481
7.5423086094807505
5.470979084372414
-13.71481149715486
-12.86716605480574
-10.97496361861957
-4.21695846660099
27.765042568664068
-8.500518025040188
-5.309317727426488
-24.757214509692027
-58.6817619043837
-19.398385164227584
-11.915139364624165
7.491585001038998
-15.216952734408826
-10.42499372497208
-2.538259716186311
4.799497624573728
-11.842957007433316
-17.430698634313952
-22.212831811660735
7.243092720163125
-77.97199321372446
-4.949076043041467
3.2167932257421192
-58.68709647024024
999600.7675602643
-57.370240342929506
-45.20760577333717
-4.729108759940296
-31.91721838517999
-6.649350605811873
5.879303192254452
4.267132213858486
-32.99498478797035
2.698747090203303
5.875002169758133
-10.762865593408543
-28.434454143680206
-14.032181894908389
-11.989399297357934
-3.816936476851125
-74.866745144483
11.066099701913462
1.2290510257005944
-2.6443998909306092
5.832192496269655
2.3189581851118297
8.066811296398548
-1.6096726681632598
8.03510910539542
-2.3760134497477265
-2.3034013188068534
3.449326837759381
9.367594343809747
-1.2127280062096133
1.99038717378905
-3.0322273782480913
-25.33678280129521
0.918880653613338
8.963550792584675
2.1350411318146363
-4.636633600925715
4.746418052736189
4.315586775799423
9.411839757440099
-10.464056481244938
-0.9632747037391148
-10.04966955201481
3.7078255801776767
15.674304319858564
-4.885265059937676
3.3959384278362053
-11.31810733713419
-24.9355515855845
-2.13170038874314
-7.426534399101186
-7.606668908616704
-2.0660009162468205
-9.105351674890525
-0.1449610737792715
9.620289174594653
-0.9597968870046011
-6.549009391926718
-13.075823202603743
-4.077322934992472
-18.764752975578748
-114.98672165066485
-8.2571859491355
-69.76992774008572
-72.66816638429444
-245.52414803387333
-69.3104772113089
-2.43775360568936
-6.740418391589288
-63.633889312653324
0.2837993359648258
-10.01563591935114
-4.526711387436219
-54.54246987718805
-13.95380883301931
-4.047924462021901
-13.328989828410304
-54.05383974720483
-1.125428120694875
-10.579469977384015
-10.23390032001858
-115.01755124349324
-4.313069904417089
-10.859960852638753
-8.63192694272848
6.622149664214069
-7.031020481969028
-0.4416817832250554
-2.799388935699368
13.48277986750989
0.012361721070859356
-1.0570462517686436
-5.946698476350373
15.333297181866039
-0.7714224626067937
-3.2840819708130247
-1.2451875090471693
-61.16587952025799
-4.013167017429359
-5.556151713160049
-12.873452454678997
-21.88592118260491
-12.08032362571847
9.133358128826835
4.696073230396763
-8.379292583470754
6.173952659483044
5.984745949546132
-9.068179941081988
33.23684353602742
-5.035374912359019
-3.6756399087817915
-14.523728889428863
-53.84365611757345
-11.18196596037929
-3.1634016966706744
-15.510013800274256
-6.632750153072517
-3.0366640526494373
-13.922544652616404
-14.364535424846888
-19.1295748059511
-32.08432281598085
-7.641965425117748
0.35732078968138337
-84.84766942651544
2.942750486387208
-45.23578449346611
-49.87353494990451
999598.5170275434
-42.65972230654131
6.63297264439268
-1.9037004383608442
-27.577954857368113
4.349382475951959
0.37776981583681674
-1.7843105671438424
-31.60260908152871
-1.896813355400925
-10.90919673652348
-3.431377739948031
-17.196824254295265
-0.29877757856402093
1.9528604409583632
8.76383446566939
-86.00908496293545
7.437531708830537
0.5668753792526567
-7.195265198199134
3.469064595319829
-1.120390881934644
-4.801396338730643
5.9896985499609405
11.55949705209854
-2.5682877985123524
2.0278864310929396
-4.696501978457228
10.02193870966404
2.4109789818309233
-1.1695326549712295
-1.1096769947577407
-38.48709051179146
-4.065055898658452
-10.333361293817228
-2.337304843189807
-17.711595819168778
5.750458798097023
9.69630365707603
8.695146479729436
-2.471000847190196
6.796969172592579
8.049609906716634
-2.6892451420106878
22.521236480305237
0.6810301723903207
1.979688662771392
1.3051784895505487
-26.66686475933331
-10.661066803972563
5.28444918854744
-5.169725260200569
-3.875704324289806
-6.887081228805955
-13.152584795717583
-10.372510517261475
-1.8915856228303367
-17.218984038881185
3.8608775144103533
-7.499737439186477
-2.678895385466767
-110.48543672987638
-74.48257112510572
-67.69554832628009
-77.17071292196114
-256.4280375452273
6.379509631971621
-3.6117534447291004
2.582787060441679
-43.99419036145956
-9.284087529604587
-14.27541229635382
-16.35360112861105
-40.78081756513594
-4.747160254628272
-4.462976144318584
0.37239446367283946
-64.68153382962336
-9.503916407239029
-0.11791769630647082
-5.925007227183542
-121.86903635478227
-5.949749238915101
-13.111620914929526
-4.164193652917437
20.73891336269734
-5.683753611219915
-11.49481976897776
-20.63682486662404
25.94208377813293
9.44824338110114
-0.7109799598966645
3.4202618958509308
7.23052599013434
-4.772920630127233
1.7909778920639101
-5.205766352559043
-76.9129179840529
-0.20413074746137638
-6.24099951422861
-2.0056594676277646
-30.715640913754132
-1.5833362264008561
-6.43444026340367
-9.75613597338433
-16.203930503120887
-0.26742405383466883
-12.81197408928923
-2.4886617187908833
0.08850533336972846
-10.08301486565028
5.353173498050212
-8.653543710813919
-73.39032591716752
0.7630210798924727
-4.399673454855606
4.150831447934323
-21.037721290285102
-5.3918094699891865
-2.330964046962051
-11.960892639168813
-15.28045433818444
11.823301005939589
-0.1907795068901341
10.715419787925775
-86.89085389952614
-53.3702986521631
-48.82771542926232
-48.298713929165565
999595.4960271672
6.280153465780508
0.6882799416207303
4.386217231445716
-26.242076402588413
-0.8813602513683882
-7.018080795823685
-11.265733597377281
-21.717471222417405
-8.238562093629072
-11.886580953133109
-7.400821705443049
-10.986464577902035
0.5528129079467781
14.248659126722087
0.94642868485347
-90.81738836514815
-6.7571684178544364
2.8018511106239217
-0.6833824689477159
15.935228143905334
-5.837591846642103
-1.763606527809239
-7.803483859681505
16.147760011341592
8.098935715400874
1.0364389267110612
6.55462000485707
5.620810460444563
-3.8989853000833494
4.616099902340721
-3.3685499167446378
-37.879838076139855
-3.5939643714546747
-1.6533891129824525
-2.7680380528131914
-14.763838492583066
7.251337174843124
2.4645907051850164
-8.495537055598819
-6.9059534531849405
-0.5644019519787119
-4.26308994209926
2.332573674271825
11.041537543557805
4.05324848805604
7.343806874767242
-2.521931058550694
-44.405099797764585
-0.14312440037004218
1.113766969724534
4.1048503294895875
-6.645859449299002
0.21119085397204782
4.9707415399471
-5.964624887256211
-6.26761651606387
-48.8186896260652
-5.3607300799732105
-6.798633654902707
-2.8282355810426747
-70.32485479687742
-21.319614219396886
-13.226636560217184
-17.855165569830053
-237.34037757627758
-53.207380398921266
-61.652467443052096
-52.774545898231665
-111.75813748021176
-11.333071814505946
-17.116478289690065
-12.348281166542128
-4.02166665423296
-17.354768118011425
-12.302354279577461
-1.1417947987217854
12.471942717089274
-2.5717552958083645
-0.38612803919836725
4.935741623238002
-128.19079062319219
-0.7480907709235182
-10.208749532195755
4.943726498551596
-54.658856426493166
-2.083349870732383
-11.013240585205166
1.4009090465033158
-4.978052369071099
-5.172111217028111
-7.222822469003442
6.360599078066109
-9.011464518254652
-6.461618728377084
-9.1557376165444
-5.450996933515041
-69.18017632044324
-5.864222834102864
-9.501294862845356
-10.21406536502974
10.896785243130648
-0.879458483650637
-11.677698239214497
-9.991230994334805
-18.90973985695637
-15.41427571525216
-7.3879140393706875
-11.748416624772345
-4.376632679275619
-2.7250389314707526
-2.9781146104811875
-10.28644121922622
-68.46839779167372
-0.41952492914387063
-6.331237351554253
-4.394430735026492
10.423923894760057
-13.622541080657038
-9.689852185546464
-16.78257336034058
-28.763100556028693
-8.008022663532769
8.868927557221934
1.2292943460698336
-38.861831279074416
-7.839097539853232
-7.5593433888322705
-9.919061479277866
999605.968404938
-30.545928760473082
-37.05369077861965
-38.681230397016115
-84.76614846705992
-1.2969739045201818
-3.362410784640514
-5.284185643462718
-0.29819620797319063
-11.181024832499954
-10.537144206973972
1.629324188268472
7.680989034483065
6.299481369228848
6.766649429619212
2.08240921395321
-91.02370268363643
0.19304737734429522
0.9583959341608711
14.251161323048924
-17.711647793016464
-3.7077012394661173
-7.62678195375431
2.2855144213706056
-1.14442270612118
1.4196619346220805
-3.2093922918757025
0.7124283110761221
0.5747624335917296
9.03633460331471
5.1124035063853785
-6.91185267138808
-38.38048732516044
-4.946229228944142
-7.061454173693435
-3.25807968187113
15.617177294609691
-6.525559135561608
0.74889666332768
-2.465548453251602
-2.5382907063244327
-5.190990160849554
-5.230503038402073
-0.2660854189750567
-9.842175737481089
-1.763432771622668
-1.5812606372081208
-1.7490963130939545
-37.614664520357266
2.577742794352441
6.236663498626688
2.434749901427688
11.970460303741781
0.39116462569629606
-4.9494054587479805
-5.778526909227624
-7.183918472456998
-58.12933213140568
-16.523551941771192
-1.7519823005227275
3.1193778631999987
-48.10567209141108
-11.455421797206677
-17.350597913957515
-62.335447340604176
-240.03182623217626
-80.81740195500775
-61.93732894165097
3.0626282600015204
-116.85836608491213
-9.540015518728913
-9.919784248323339
-24.39211659681672
6.894944880967752
-7.767742566634836
-10.414762829286325
-12.673630451349636
9.197195422698842
-0.3497791330270909
-15.486414696689241
-10.971299644164317
-120.13806683374511
-7.182983002927652
-12.697504641381515
-5.0266379303676905
-69.25278949986078
5.201747913372027
-6.221836833812783
-1.861083566750305
-14.974531209663564
-2.6257173383618126
3.116529596330197
4.952138638235942
-13.720333676860584
8.301564106355652
0.91050409459169
-5.493697079343626
-58.24788309526114
-13.081140473818905
-8.91498799063335
-7.22937525273908
8.303816034213849
1.4526695825344298
-7.279812404436034
-6.567544738786856
-17.574358772386525
6.51991311877863
6.9147612870042785
-8.670862738309584
-16.90001626972587
-0.913798409481414
-12.237342940865299
-5.980115952213311
-54.632301428098756
-0.5917595990871737
-0.8415232346688121
-20.86818346224372
4.464310826270194
-4.089132099640122
-12.575738707254253
7.8163033613680595
-30.60060621780269
-10.655189214401197
5.283917869905229
1.6156658034931743
-28.20659960977892
-5.216710747016064
-2.1199667223065886
-35.65434355271432
999603.651764183
-49.850470782536874
-46.397613829515535
0.7206864109925417
-86.03560061608658
1.7489540357911093
4.839144300983208
-5.6379835023603375
3.8756618284610975
-2.8990231533436503
-3.687812162963201
-7.340560057105133
7.485683025370273
5.661679729600016
-11.421922264611425
-1.1964461752325826
-91.57544256954154
12.952306820854131
7.380762968116755
-5.608137641212948
-12.320876936212835
5.79993031070741
-6.188081207031859
-3.170663758134533
-10.578750024865352
-9.55361491868365
9.572798944389147
0.029906714592549385
-1.5468402563716548
-0.18943922807258773
-3.262880958398254
0.7003874987951495
-32.55858169479715
-6.969884378593544
5.0246562408846
1.9085906097144818
7.436472764753444
2.9347933532619095
-6.553758316291466
-2.2424304892939766
-6.8032002515733785
7.003622584279462
7.587301327755859
-6.432829022335635
-5.167929963249959
7.421044614653501
-4.828432974827074
-3.3370655540780265
-34.110331988121956
5.158629841815844
-1.9084583539720372
-6.929578678365647
-2.3175395955120073
0.6632913267072292
-5.9998740442442555
-7.758295512745202
2.3999830796435657
-56.73105060852157
1.5853469836363643
-17.0599717099111
-5.254457581908241
-73.96854618553579
-10.325713419794825
-69.12116806976042
-58.28525298734459
-241.1305507342882
-63.68317094768701
-21.30026842719864
-16.319547207623426
-121.42184574135051
-15.870670079041476
-9.85353370907468
-8.94711493528743
6.232664101840282
6.966897115361331
-1.3915141053925024
8.589103371788502
5.3684670114420525
15.298637791684598
-12.647739058715118
-8.307805514871593
-120.26915070076221
5.704976882782467
-8.499651225791181
-8.574069327832401
-59.38884023668792
6.727865047502208
-12.687605698317643
-3.7859979433734425
-9.31068106980452
1.7475983083250308
-10.866059639593807
-1.424245385263234
-4.2929746309553245
5.2755690924485945
-9.453757467900708
-3.3146853825281757
-66.28127253321064
-1.919890144107306
-2.329803851256168
2.351505589153643
16.01361446142686
7.4946059205756494
-11.648339580260993
-19.893453448389533
-13.783459694638495
-22.35490999087896
-5.293124852686391
-5.513623457453621
-8.844565786066921
-14.029960152345996
2.770085142122094
-8.267467834136772
-63.44289560409269
-11.462896733085335
-1.3584671176183887
-15.666086081974623
6.781909113368533
-10.408529630649658
5.15173494248206
3.8993012083701672
-29.259947497769197
5.453943177574445
-3.6164743066886382
-1.1606295556691488
-43.22398367003489
-6.012604214429735
-43.534380511773904
-37.92432008111364
999606.7119773307
-49.47804374874047
-6.171493103560946
-3.470402713616777
-84.77282665906894
-3.262764878114255
-4.569502388299547
-7.315797336227201
5.6907008868906095
4.18505808858647
-3.3136739966126747
2.7497400393840628
4.917760197130962
6.3424226209467465
-1.2797808544937275
9.074188682607028
-84.66240818996056
3.0270026455015913
-7.071686975281463
-4.183069709848278
-22.473773412552355
4.685624953877548
-10.381385438205768
-1.1544317624696812
1.399780398696943
-3.486720274446419
-1.5068906162339109
9.458807379896347
2.2934717134599762
2.6874503547356716
-4.185847839084932
5.195264168255693
-41.45333155228455
5.88128816531667
-1.9064171082990837
-2.4628177627799412
9.01395608996304
5.00635092714806
-7.234722042601999
-13.389020163497017
-1.7590673675281197
-8.586864421538015
-2.321168151233067
0.05821531285142525
-0.15724594590804297
-6.039307232142476
4.90068705900523
-6.136278511158079
-29.829562370572827
1.485109739061957
7.004677590405347
-3.6307749493203474
8.47469230390163
-7.561760679699662
-7.4599297114740795
-7.887793215179839
-17.361340853532234
-56.90470769447532
-13.663576561473002
-12.403835111892086
-10.465350729080436
-53.208326921956576
-82.16544283830801
-73.32715610421558
-79.6228247302908
-245.67046390219247
-17.520230238117453
-11.10786960044396
-12.362284922932512
-116.8047906937695
-0.2149654354457713
-2.2191778229718797
-10.733088636413905
-2.0751895184977904
1.423033223271343
5.3258690225316085
7.856868541529864
19.178004776652866
-5.381030045467981
-5.74204874334421
-5.0116960375403625
-122.09357040590135
-2.155914928200119
-8.854097249738054
-5.571237206864979
-73.19960565442909
-0.32495660138570204
6.398909594921377
-5.377745805466723
-15.688367520273244
-6.090213647762948
0.17965069354232038
3.616444645732203
-11.34040585832185
-15.299378634475216
-5.76789844995712
-8.267743766021074
-50.87711445057991
-7.950449183302758
-4.279537605004184
-1.8658044754078795
14.940161660945648
-2.686311379853143
-3.1638901385483806
-12.528363351009004
-21.31076812872045
2.0237927565708755
3.5268601798678048
4.05742881112288
-16.106921388411394
-5.668128066014666
-2.5463380396846467
-13.376684938250351
-52.43299549537295
-7.904878771180919
-2.2983574301087963
-5.660485630759749
2.857469553081749
-1.1945207313157424
3.595513364284866
-3.315537887062194
-29.308445327355436
-7.969181587641458
-4.826859148910888
-1.6069780454990588
-23.683478211413966
-41.69602668080784
-48.07462825852542
-51.57421695605138
999603.1242098552
-7.9392383258325365
2.478123552378192
2.4314814163755902
-90.74053754170038
0.9752566788194297
0.2969149245804184
-6.727078957700829
-0.04546539832322205
7.051608530927693
-0.678919264055899
7.788600904183439
11.908491834656733
5.288137426146433
14.028488893078642
9.358396364485206
-97.47611316662912
-4.497453366839835
-3.3656764676250153
3.204787526046193
-25.598124781504637
-8.552944479090916
3.2948035301237613
3.6557845338042343
-12.026391726806338
0.10294421787962953
-6.892642569903459
5.000596758882427
-8.287695639663923
-6.882186741665454
1.2273593881129872
-7.512009763645145
-29.03465345832299
-9.381248422064575
-3.68781289108622
1.8042425595843985
15.955462249487285
8.379785907502399
2.887735803275102
-6.6771648627919244
-14.336835925986806
-0.009353133258585672
-1.1839539184523573
12.488163313603572
-3.9826911505838454
-0.011674795749335278
-1.952220512998088
-6.175463717272147
-34.12494337678521
5.212365507496925
-0.8818412037615687
-1.9526133854438947
12.429399369592902
-60.79673468326631
-17.006687547675032
-10.775749384534128
-1.0988979127044611
-63.578986913067546
-13.78655642189767
-17.32979831189982
-18.336763212562964
-121.3909865324602
-10.808981059176485
-16.38039126190825
-0.6809292723903736
-250.77876886915996
-74.03592447823047
-78.6712822781194
-73.4631764061621
14.843703345523341
-13.873765716324353
-17.31616265023809
-5.089080180699096
28.250131056733174
4.940084534914724
5.827614533134257
-13.185542646101649
-57.43022273624813
-5.580849994504742
-13.975441321375369
-6.995380431428652
-110.17868307880983
-7.977289059231385
-19.544365785482473
-10.407844294325688
-8.834900587186088
-1.759470177013212
1.311758778528138
8.257424761883904
-7.2932070454119655
5.738375015758406
8.135902096789335
-12.850746822065105
6.189924240838617
2.4775047251555407
2.354904110700083
-6.295174745660072
-54.35170678967745
4.963691651612013
1.1550319842625674
-5.1731013625928925
-8.332799369610868
-10.279372368373929
-3.455401390005763
-11.850558908820807
-7.909251261386932
-0.311519920409585
-4.311200196514135
-19.43899931958096
11.5288613887371
-2.956830880978894
-10.708467127941113
-7.830015068327957
-49.66901378259494
2.5736358493566227
-4.564211518690945
-9.82971497034179
-28.967358787839203
-7.582728844570031
-1.4569127345242032
1.5893889654081734
-30.990906770705188
-3.1515035663480564
-0.2156767847379169
-13.729215621816016
-88.92032382987117
9.490339377110432
-2.029195852941217
6.441875647047161
999599.5336470538
-56.67383566423224
-55.379297873149284
-43.082952757841305
10.19269834047251
-7.146869039263523
-6.817500930508816
-3.6204026455546092
17.488896999973793
6.6255928417038925
5.3981481980769805
-0.5286175937447737
-17.801195844126248
3.622596798866739
-1.1901003696479466
-6.105169087899627
-77.39421351915112
1.0968516129742671
-4.452799768122493
-2.443588193907941
-0.7256730787673754
1.2679142186180266
2.8305193032193263
-1.894435775401541
-2.2685833171125833
8.530612714652705
5.202048771010526
-6.106965602030825
-1.0113753982142257
3.553515696005431
-3.7030396892323623
-1.421186342355724
-28.667793678273608
4.307035703956911
2.95957978076677
0.4714726027570737
-5.904469192701424
-10.796924809303825
-5.457728641821871
8.732718101969777
-11.167721324619103
0.14205987328018854
0.5210329689937412
-10.614380234698451
6.782031751939024
-1.496056350302788
0.8603832661438995
-2.160487740586915
-27.58717332700589
4.535203706140894
5.729934898313511
-6.1302270285046925
-16.45205640569445
-49.26107672365771
-34.36749590374801
-10.13168679985649
-18.051917112823485
-61.93738263619368
-6.3047633909495335
-24.635962737771585
-11.556665171370275
-99.58593699512039
3.1793306422810734
4.256357992964945
-76.27804522473652
-246.2078399318226
-79.51861293323246
-80.10275416153259
-4.055196882333399
33.14801007731502
-21.14884201903474
2.9585157748273696
-1.1212245575023816
21.248107019254935
0.7190970859223802
1.1955242377477475
-21.749553925313997
-61.57046030278219
-12.98978432869821
1.2343330117481555
-8.863682944956176
-122.19957615725187
-10.518248385933942
-12.63150583595859
5.018550161404242
-6.759745408097131
-32.28614254666497
-6.014695317067422
9.406174395803856
-7.833025560535046
2.3388761001647462
-11.813471615512373
-7.222256447896019
12.794735734626462
-8.509278130670925
-9.903219181318304
5.6919721459660515
-58.06930395654181
-20.167230138920612
-18.89086266137701
14.373217141135878
-7.016167129471608
-6.823413696312726
0.28513737895958874
-1.0800855360655501
-15.016307602198719
3.8913919835144624
-22.03018742136883
-8.515459615348277
11.947224103944693
-4.770537191026855
-4.574661250392137
2.1919893860762465
-54.36814178193211
0.5840068806082302
-14.310211856741612
-8.978463339881028
-26.805321837746668
-17.938642394763647
-2.983023839727231
-3.489335753305078
-27.919407942818506
1.1945862070003987
-13.88610838863651
8.32831607998647
-82.5726022724135
16.75623155857658
14.753652213715528
-48.98977386261629
999594.8876279669
-47.47487637291308
-47.94068516768947
-6.3317617856811115
16.3522660536597
-4.836106566400252
9.290745025500602
-1.8813273764243792
16.32090436435666
3.961020060622362
0.592269173990771
-18.371724546555267
-13.770738713294142
-7.33311709131124
-1.3998486760864575
-6.71746503914504
-85.36984577793405
-0.4555647208422655
-0.15181032746301212
8.09367275807033
-2.9607297489149587
-12.320868104845422
-7.469072173945892
10.714842612544311
-5.768500066095728
8.828427368939119
-2.2058684665760753
-0.6083390712709659
6.716622411310729
-6.26342139460151
2.7754384844012217
10.635953584971952
-39.25435875106966
-6.5000452383210146
-5.9996989895483965
6.02766600161394
2.916087287726971
-7.12865585679461
8.267045956517519
-3.7770113180206746
-9.356105881404508
2.093054357668428
-14.559188162122354
-3.6493163145875647
7.153224621050864
-1.7472023008311546
3.227951791928923
15.343452128162564
-30.781054649227865
1.9629138678183846
-11.699139386350728
-14.375975456336295
-13.652042995301588
-50.726794343008756
-12.866255317514698
-17.612794502547555
-12.049964637454536
-59.43891992690734
-11.464763513762627
3.1222378355413745
1.8741280712812451
-97.89708915135695
4.448833719550941
-80.8422994035002
-83.3110486801844
-233.58058347677292
-65.29850939048114
7.082095895068604
-3.8647127745754286
26.275192869531594
-3.842030829630809
9.747003378961423
7.008762329006148
21.656410907370613
-2.882053589109801
-5.571151662564977
-18.420631756994542
-67.53192002051213
-9.245463223978751
-9.757391035149988
-23.342332440248086
-116.94006384813602
-5.146209814823183
3.3640716356367113
10.858581841807293
-4.705607937827026
11.2847945521971
-9.0123857013364
3.635375456825957
-13.043378372093402
3.370762816486148
-11.939403041431694
0.9277994491336748
20.585826300760175
-2.081312324952689
-24.067154695499607
-9.553479108111215
-56.33884358674861
1.092448078327972
2.8715175207741104
-8.759862629220425
-15.272615128808857
1.1037594118891867
0.8968760907575449
2.339386968201988
-8.766720968683824
-1.8550839670684462
-10.182753099442749
-9.327041021154697
-2.691243187861664
-15.801299600842084
-22.12790138761859
-24.145965973439445
-64.10034262537378
-14.408988361490305
-1.022263046755349
-3.9872815828245107
-22.626508401302566
-9.780845407592867
-7.357859076011117
-7.03365224818959
-22.79961460150542
-12.43537853511911
5.21267512033937
14.21849925778899
-64.96329622888621
10.190876134151694
-52.964391129071736
-58.170533247507855
999603.6720269064
-42.93989395563054
6.367992280619894
-3.6213333005105643
14.537865555403739
0.6100527047599503
4.7844672926623035
10.874931211834024
14.845882483918597
5.153421903638086
-5.619193041133661
-4.80313191460923
-22.07144281405689
-12.971662091300548
-3.1707131550880057
0.4873745507452578
-93.95627918499478
-2.690497535387974
-3.571239364255728
0.8530695772404413
2.1130918402412764
9.177698641007957
-8.650563845239496
7.11955595985202
-4.824180097101723
0.6399943679938822
-0.09931457310248425
2.050027067786509
5.387141086451919
3.845367850236232
-0.7494328133892455
-7.046445130079479
-31.63170987080527
3.2376399046500377
-3.143923496680024
-0.363669176407911
-1.340622942845808
-4.194531381047552
3.701326201772451
2.5979939062634783
-15.643703852237802
5.004673280072777
-5.5849274957099695
-7.3250011641783965
6.110948353630617
-7.339739405406681
-0.9552907629517505
-4.9101370373029605
-34.57991887561119
-3.9030358036793866
-5.366354820863944
-12.160043316699996
-26.38558250379012
-52.18791306595427
-7.626919869702804
-1.8748669562827946
-21.95289848188548
-56.131707150182585
-11.597178408623268
5.470369597339202
-12.750948894994636
-101.51612914641521
-66.74603092250446
-68.72523881212817
-76.68364376056236
-224.86558182564173
-5.2400940597791905
2.5240422682954105
-5.9719893994380495
31.439540556096293
-17.14892381527416
-5.433841898502189
-13.578446932683221
6.3774542830791505
-19.615682977540366
-3.0257391362800514
-17.519285356320626
-45.95640128181325
-8.26794253198874
-5.4846339776262
-12.360884522389386
-97.75779185674375
-0.5708378451514117
-3.290015247607275
-3.8667692604943174
-8.315893935729212
-13.121647278771936
-1.8279431733385847
-9.07618904462191
-10.930843784516947
-21.192936594888387
6.31732105419332
-1.6756485245002373
7.587365026378956
-15.390232150630542
-13.828655634219956
-7.669646131855616
-52.461396329635036
5.323237979343592
-9.627239238350327
-13.07367143894858
-22.341815819140766
18.312176121546557
10.650080654674753
-0.9396690322875623
-17.518268238067247
-10.78938345252149
2.0053793077553026
-9.840447135169725
16.10380294624003
-1.1845296692712257
-6.2113395121376955
-18.589897965828126
-65.6066096428355
-3.6695012130465803
-3.7323500839641954
-8.783600898185938
-30.906847511474975
-0.6999462682769572
-0.2956246552149302
-9.927931856273212
-27.11027709520991
0.296758489058485
9.87511325310295
5.32553027639752
-84.750551214781
-37.302402623606234
-51.13973724802152
-52.52789626476689
999609.0067846758
-2.097623963151586
0.6737391458331303
1.7918350108328287
18.245885800032323
-9.418858967103956
2.3446162085232265
-11.329535779029834
11.301690467515998
-12.290615022879258
0.8264258109435092
-1.617666704331681
-18.54400746891055
-4.596975338034366
5.35746008636367
-0.4203720937132821
-71.67875272310764
3.3286552531876534
2.167903188886198
5.20152513736333
-7.667987338270719
-0.0896323345865838
-3.928222341125902
1.8975656087841832
-16.96484466329021
-9.880790972115816
-1.4197145912171165
-1.6828755729265017
12.979697719420562
-6.969715284056384
-8.473621297774358
-2.7854925448548475
-24.781984683334873
6.276379400036046
0.280553811214098
-7.228749616454076
-6.39470896211826
7.131329696833844
8.413117161983532
2.2401891038177286
-8.359989832133444
1.547426635270379
1.5626510333340309
-2.194324717697056
1.921209481278404
3.742288977016903
1.4276707992071649
-6.365322954431024
-30.50854561947674
-119.06788206574632
-7.266969210775867
-24.614168059169003
-6.20498797057024
-61.405355850657365
-7.753539748724965
-15.45434713612255
0.2348427684712519
9.236462014019994
-4.7805092239845415
-17.043753088152815
13.233899423465003
11.770245219740735
-5.317737189940016
-12.845570664595225
-4.061690562218868
-235.86274673564418
-64.7435005627227
-60.32372498023652
-63.51989649247838
-102.8847653244303
-16.916157679511144
-6.349001839202941
-0.44489554578636026
-51.537449551562226
-5.4452300222091505
-0.5044292095708308
4.508334363845967
-43.44354297482173
-6.098403574752944
-2.7180188331611252
-6.116312712432492
-66.96163751686218
-11.655768713701235
-3.902424479166125
-6.204919837614065
12.840747406179904
-10.577596151233973
-5.429929138471309
-5.325728895379889
-23.980593424918553
5.3679720865997576
7.249760475620577
1.5869243570747482
-18.159611424952267
-0.6024144617355965
0.025186632381214387
-5.922211940278412
-70.72485596423661
-19.437527378384473
-7.626331647288136
-19.811285227885875
8.87747347252645
-10.54811737580545
-2.6115090699689216
-7.1915046179784285
-31.487632407493575
-15.926857399827126
-9.215913382549012
-19.637731273987026
-19.94713539663565
-7.4295022656600125
-7.430877754239775
-16.508804139420157
-87.19415540308232
-3.60263135169841
-1.6136556253317293
9.198320305068776
-12.949089460920229
-2.22878831035771
-13.226298289490387
3.2637677718450466
0.5718836160634316
6.710080436549467
-7.991887995083568
2.5746312555961275
15.70634538322498
-8.588746040084773
-10.390777880423242
7.697700425766984
999601.7492416753
-47.98612598070559
-41.53275354449898
-45.337442712425165
-78.73006566346731
4.206874316442238
2.5087981423648364
-3.113318083789219
-27.448034012506554
0.49181287385634
-1.338897548865847
3.5866658520103543
-15.086019099448333
-1.1362108495952208
3.4801791007092904
-3.7013920735104118
-30.307503863411565
0.3791445365180822
-3.669076720900858
2.1744021818095915
3.9859551142539007
1.3448983675753683
4.507764006584051
-1.310067319344131
-5.9268676770433135
4.6529529688503315
-5.074036492207653
8.275489957858783
-0.02049207323319445
-1.729811157629337
0.6414008646507838
-3.397368079783113
-42.74571048277662
-5.2150048912798885
2.8503467314373716
-3.1013012733241245
5.194107822453395
-1.014286056858441
0.06120209293162162
-9.139508940366849
-13.781595054712826
-1.4371544665644809
-1.979936115048805
-7.1384384277238375
-10.08624648016419
-2.8319663427346944
-2.4289407000705387
-6.0033058316460295
1.2593172180704144
-101.96829152756082
-1.0794061822726553
-8.948277616623017
-5.015187599910282
-56.07771152894503
7.5762083164194705
-14.74647617992638
1.0030009703675968
24.2745721926703
-0.18543596825382358
-0.47807337435579034
0.6283093937268219
20.734908415819007
1.0038152459217504
-9.512541264588231
-75.453007168291
-246.1796923502464
-66.26344506376125
-77.17067430969823
-14.183148233775066
-123.30031605683926
2.526511493634781
-8.860547520847314
-5.978187036615935
-61.485387607346254
-3.3727631801012787
1.5138304487463068
-15.840051984349971
-70.98840775469637
-6.842764584349318
-14.987788169584064
1.5947026623512808
-56.35197732697215
-16.95902137852897
-4.132849448781249
-8.581513956907404
3.1653834779729646
-1.0823963630009434
-10.62030788891385
-3.760655438332575
-23.10159588839766
-12.597862931482114
1.6486756899052095
3.91943723185232
-16.29716426226837
-7.588584046940742
1.135927578365943
-20.38179762610375
-56.590295610638734
-16.47845911182602
-12.529609810244002
-10.943929854314947
12.690774955590276
2.908604578977356
-7.870129045276458
-2.5462020112820687
-4.6354679129743666
-8.224628647361534
7.0147792787026395
-2.409394041612707
-13.719480539334457
-9.856952725365012
-2.8080677584560942
5.709178551857396
-76.44448735059352
8.2400119638457
2.8927461425150005
-0.8649255659255213
-23.225931057419338
4.923433865709757
-12.954994223702196
3.490839065428486
13.289722925787157
1.49879868461612
0.31450489322537045
-1.7542493460141688
11.968816277417856
-0.9287396410986128
-2.7927197839569597
-46.225786159577645
999602.8530059308
-43.100152831814704
-46.68622487570236
-4.415691635742003
-87.22942909650953
11.226942483915149
-3.4705979014093185
-11.032311109024375
-35.64790002859593
-5.138438080724561
9.116653195351201
-8.17656990879353
-30.433384745593152
0.05123900878008536
-6.31863990405951
-2.2683906713970523
-30.00016593029031
-0.5065261403601664
3.0598489048583826
-3.782052095763048
1.9040522412078054
-1.7942074515491562
3.1939103083928835
1.5768279447767612
-14.064089347018239
-7.2084384924104015
3.7635781183683568
2.830255238885698
-7.0505954459687965
-4.921964141884424
1.3700115157987487
-8.366574883477572
-27.636627662458196
-6.788465998648003
-6.326113878038667
2.2135248492092527
14.026255560618948
1.0356512601065297
0.9482537106731094
7.199336816357596
-3.525540597663435
-3.456690633362677
7.782314326087151
-4.020175982339403
-5.447452845225864
0.546100660591869
-11.319821865731253
-7.207219311892701
6.1675130641756155
-113.80308477702988
4.798311035804222
-7.574668659482412
-0.8657852224458408
-67.29178021807256
-6.745636564502368
-3.1956653925777574
6.158235064059993
12.080291763670305
-3.3987037857415725
-4.300744066116637
-4.202039126967649
6.060686118177994
-1.4917268171885139
-80.85283234275522
-75.86812666613923
-237.27988765137866
-75.24717251151485
-7.907339020336301
-2.704841100731707
-108.20575222157903
-12.727279199341814
-7.366572609009404
-1.8880797245932255
-53.18998059417645
-9.829296141765237
-18.25277940527561
-17.141924643987622
-60.326907787776314
-15.931760842067488
-8.005854234686547
-7.287857654922458
-58.62877974099678
1.3409872348846479
-9.83038981397157
-8.956597177028994
16.02156365755337
-1.3007748768450171
-6.259678406806648
-5.43610291550462
-15.239756719781225
-1.1929282919650581
-9.449360801329222
2.064599236999167
-19.694379333429605
-0.2195890269593562
-19.11289684675266
-9.024936827922577
-63.7836732026741
-6.3463954626580525
-4.706096719973769
-2.474020534704422
13.71476241361449
6.836640481253719
-12.427236681647777
0.16941521597090814
-25.508944457949625
-10.656337128620029
2.6584188664543706
8.892411715844618
-9.848652647212328
8.449566824761417
8.81921147646851
7.488071692845683
-81.26372135752447
6.139786719688797
-2.075097938129828
-3.3294211849439352
-17.66383239812493
-7.591784818491858
-0.3152927533071969
2.1846808385787764
8.68536371677374
0.8796409888957973
-3.2635271025886334
-2.2322209277798972
-1.2721616084761522
2.0055283319345985
-54.08316360121264
-53.24288659510034
999605.9832527941
-51.42689037702533
-0.7177443678841732
0.3658226363107714
-71.95221162657707
-2.8765784671825276
-5.389436365225399
7.802235585526664
-33.026061924550724
3.8295414225098146
-13.515851666790521
2.530121329086544
-30.3363778790918
-7.862450097641766
-5.54653287279614
-5.378747525079488
-26.400639765754086
9.99402502463329
-1.2590986176087158
-3.536636467976194
13.327003954118803
-3.150425577269689
-0.23363865579630347
-0.18439648872834502
-9.957603051928942
-0.41991185840604867
-0.455335919105364
-7.992879327642148
-2.876671203441159
-2.6327933187618333
-16.227458365502653
-0.827252511977154
-35.940282625951426
1.9967744069536315
3.0743300904742794
4.27844213359724
8.048933943762254
-3.158397776496544
-3.2099803834090292
4.64466364743619
-15.280503560123101
-1.9002966861441586
9.455279800672372
5.606697866864447
-2.969751515941787
8.241129897540741
-19.518597668868455
-7.301789268932821
-18.765304421962632
-109.39286693637722
-2.6374455330371593
0.09085462256980288
-10.44637462955692
-53.63393968720845
-14.247815729666886
2.0811128116416833
-15.639833205505882
13.36067687122871
-8.945127655146187
0.9076086994046335
-20.778918969601158
0.5060946041662437
-82.54040213650167
-75.96387344498811
-66.00580097484016
-233.58391798058742
-8.017434949977687
-16.23117379226096
-1.2570755376888978
-107.48772627540244
-9.5148147203115
-3.7809469817114802
-8.607999772257504
-50.51225775950802
-6.072187502387302
-16.774109174910738
-9.007637082611405
-60.08033275350802
-4.147636808785963
-4.6590985786604175
-13.963286788457934
-48.93601224088453
-1.6603193965402117
-15.445701726008592
-10.363348105281592
13.976747639983499
4.928062588897237
8.507303515912202
2.7681827300228705
-0.14515531503485515
5.042951973646881
-4.768267424081464
-4.1092358444926065
-10.424860070577855
1.3204855803396243
-5.51371403908944
-3.866991037253814
-50.296195515213974
-8.353171314097112
-17.52571749983919
-11.546600313019397
-0.2880603370844977
-1.300012265127087
0.14002180163629804
-5.042955108167599
-15.133829411215027
3.8032229650955527
0.44602178132458964
-6.232565187078675
-26.348934458719555
-7.170943959116611
4.87038395611245
-5.799553081542502
-77.01286338073223
3.6930933469672382
-0.35003904051493495
-3.5306194489193685
-18.783458179708493
-2.899266027779191
3.0577737205251547
-4.951992451793299
7.9105964358857115
-5.0435608042283295
1.0723784605539075
-8.670347160450072
6.4076797553735565
-49.65573026423509
-48.487792909249606
-47.03396994277564
999609.960171336
3.2221426590788615
-3.6607529575623263
6.664098976335157
-80.63352597497642
-0.9343321564862952
-8.629684791372762
2.5961294530620522
-26.51878159736487
-6.986387422288131
-2.6799190207197987
0.3296178507340423
-31.096945916543717
-0.8540707603959478
-4.242552439752558
-5.172324018562573
-28.557569992566943
6.649420284791032
-8.45699323148407
-4.419938740641053
5.27939140455814
11.160421902130011
0.5127565357823768
-1.7624120328992536
-0.34340845669585124
1.1520658899432
0.4354998833773192
1.9517515316246887
-8.00308269752802
-1.4324080938242147
9.625312527902418
2.33072090242832
-28.307486318328074
3.7270508624521757
-7.642623643048981
-3.3399825392045637
-3.16589792089944
-4.379383496951961
0.9551314477360747
7.3591752749480035
-8.237452402931664
5.233780679764581
-3.1034164510137603
-4.288069215608214
-5.570277236741432
-57.2893956075986
-10.397858323930693
2.279598090552
-1.761373463592342
-118.80181851133727
-14.615048675059816
-22.977357374862716
-1.2807428521424762
17.756622525398427
-11.678322187804156
-0.8710734399840453
-9.461352784728676
12.057700843539168
-5.130729634908463
-1.566976922948162
-9.249518753299048
-117.79800321762684
-17.465916703508405
-9.13376889383139
-2.853239847711495
-238.79430688379756
-73.3873161873145
-87.83566094381644
-59.702459535331826
-54.126215553112786
-10.03449850244352
-8.149190306937566
-5.452024705244457
-52.04986155343969
-4.512787020150346
-10.879618275398016
-10.12216421611968
16.847989026669424
-1.7638318753776103
9.926892007120278
2.9369883189064967
-54.779448601039896
-4.808598680030957
-17.297474924719367
0.10863437560011607
-7.94081036691509
3.8429711235374473
-2.047315165880811
-8.852251535035164
-17.70567977522585
15.80196643502002
-9.88538062016501
-10.502036795471279
10.632057936438832
-16.781652770493988
7.592539292997976
-8.888857654818896
-62.20449094712971
-20.169822227528584
-13.848828682395132
-2.30695539993058
-15.729046724828041
-10.553761094334954
-6.4005484137407915
-11.933785107691559
-6.786230236881365
6.130918008773222
6.565356634495479
-8.474110678718223
-18.247395517420003
-11.6301522952598
1.9599316031037375
-5.859997534553286
-87.95468828493804
-3.885778381690022
-4.192207159602941
7.973830195229681
5.059124504575975
-2.297168727881213
4.533347642548505
-5.508273420655446
11.61862855983279
-5.4034419852833215
-1.0584230681100295
4.809494674877476
-91.28578677687702
0.021829013559247216
3.5890804957628957
-0.6301251407951052
999614.508033044
-44.918518537418436
-55.84816226925744
-39.18641557031676
-31.730044332706264
-1.26714872878318
-1.3164500000181991
0.1609905146620938
-26.505459851595354
-1.2642324102980738
-5.501841855635011
-7.044051245728039
6.173858439588125
2.060035607549018
8.668791013025759
5.572044707012408
-31.118537009130968
7.476742808282272
-13.234458167571123
2.351360447222129
-2.9380637324053063
5.594665662531738
-3.3035008535737456
2.8955612962773336
-4.125775174447624
0.1330640294684787
-4.634580043421982
-6.345433892695071
8.154909445228288
-5.822093727571424
12.291808670932701
-0.7453323636300476
-37.06145706678873
-7.871503771479603
-6.042600956264362
0.8873174585668261
-7.453297556661184
1.4100062795391353
3.8961926396719795
-11.057259966520071
4.3186417072986005
1.2957521336299376
4.153202012052964
-3.476218942185717
-17.35358304063289
-59.04269622309926
-18.341316218365723
-6.632045816588098
-6.525355405045067
-117.9521510952578
-15.209902784322834
-12.381025710824312
-7.587270023085579
13.14642730404154
-4.903889935323781
13.452365011095017
-17.609264534788313
8.230215669632793
-8.261865398459094
-11.38992647675631
-15.543146963579035
-115.79523223289333
-12.426525354252998
-17.037084950064862
-66.73917544207255
-237.46561564648025
-65.76165314265823
-67.70020814596351
-13.73975409084769
-58.288271246804875
-7.476217797809991
0.5603563474423506
-9.628598760638063
-54.65732353946618
1.9887865291908697
-6.342759335936385
-13.194540206753757
14.310906444497087
-6.109480472191314
1.1982037402232117
0.9254271065562156
-54.52869851499165
-1.1307429554105353
3.124179140460318
-2.188933544181388
-21.581501851711707
-4.352533717958655
-3.619816084161701
-3.7117419813593777
-18.740360099067978
-0.8394517819389761
-8.662206722533604
-10.486242837668069
18.12097399295215
-1.644306519306609
-11.39891600009591
-13.442666180169558
-55.61317606886315
-3.3841243208127243
-3.9940470194019735
-8.290118616682122
-23.00756916533358
-2.7512875131248644
-10.62145547750342
6.166695470126891
-3.3524325800226134
2.987185424777298
-14.49061934170264
-0.18491131525965263
-19.969107468435244
-6.33409503558626
-7.929150553499745
3.0238202212001806
-87.68001766558679
-4.094191525293703
8.257411652163208
4.4857341438807365
12.09780315150045
1.9838176877883213
11.677151151780077
-7.673721707189504
4.59899592791214
-3.165026668001346
1.6096980707557125
-1.913686904926293
-83.36359231866082
-2.5672379600583954
1.4829175689667713
-44.27829032052076
999607.3701989785
-40.047610800248094
-49.63496071569293
-5.9096185658944655
-30.135873461714844
-2.148451639126735
7.242391536484342
-10.540073285002931
-25.984093211049764
3.1194974071162127
-5.380519027245204
-1.6983694507083575
6.988044458047308
-0.333784062776837
0.30756020535636835
-3.913975680149437
-31.615036098108412
2.678127452224984
9.380398652840332
0.9855352409852912
-13.033757013190602
-2.083416107358135
1.516663611305061
2.127611865525772
-10.335557388804386
-0.8160141162171486
-6.000776349241046
-5.968587457850164
12.086321470038156
-2.517982327189074
0.19474903361173113
-0.5832237059019914
-24.21923914356284
-3.706003446547994
-5.5090008592610875
-4.742540075135758
-10.219468544293225
-7.5942522774864925
-3.118396877563953
4.821241338746616
-0.03985314450662501
7.527222808504743
-10.989967355518605
-18.568748288470832
-14.157884854822289
-54.1884481542694
-0.33243457451033154
-14.979492154161283
-5.108925935402196
-128.92180678308893
-6.926731070024673
-3.4408071279324033
9.517554707234662
17.818196161415297
11.428951591157437
-1.2298153849822648
11.236986067474476
20.76907805395588
6.154968841800788
-26.69445883023653
-17.20813615958252
-94.84314848804642
-7.00164534220457
-68.7227107224982
-72.36366622059948
-240.674876072171
-64.76024309297746
-8.306655409616791
-6.912083940203469
-50.26614983405988
7.328413784240943
-13.357212250056424
-13.468149715513274
-59.88105631853374
-8.560241870008213
-14.381494162874473
-10.383364934979118
29.99511041540332
-4.146537221666427
-14.897005638337303
-11.971791295625472
-67.86835795328643
-10.809229798049742
-18.00273701905467
-7.721329900753554
-10.279668660878585
-7.774432118686778
-2.4166151000902345
-1.9944880640282427
-6.395047207652919
-3.2364885680902122
-17.534552800594053
-15.296103359170706
13.094211214002426
0.8141481375908247
7.466027560621438
-0.8672548633576345
-60.11406727086217
3.1814509297339937
-11.299553666439268
-8.913653449071523
-22.352879373332275
-10.29577287588987
-2.613921927529339
2.725725435917016
-19.514484794378774
1.4504551438049584
-16.81039064002218
-4.70799882563792
-13.799527322800891
-0.6063753393525635
-0.5362778990990328
5.0353090779399405
-93.39110119807557
0.43533566706754756
5.675148096370388
10.744030852335158
14.57707414958537
8.051614024458676
3.6089277610633936
0.9486731785710654
7.48215193778753
2.0970453231617463
-4.415835869130832
-6.717138114702684
-75.13630703798515
8.016074653600706
-45.79910348091769
-41.16415863781008
999605.0008353158
-46.37908726673054
-1.6583644121735808
-2.6335633694794676
-30.09945591014336
2.816760787998164
-9.321923562608593
-6.598909020717279
-28.659054338272274
-6.979971238502777
-7.258967390665449
-9.103293870315735
17.54042105392409
3.1857813219997775
-2.211166914836046
-1.93623353603527
-33.713968386374
-6.140977438970946
-12.840082418276037
-5.6074518045662805
-3.408624844259045
-0.8612515698556067
-3.7592723417975047
0.35723453996776255
1.998224673483899
1.4978412004650936
-3.152003945219711
-3.9327115472037755
17.799765312544334
-0.8477722717549806
15.94973339264264
8.672372602333818
-41.43642408128734
-2.527493415917289
-10.686562791186988
-5.664263777454874
-16.283622774072388
0.6317186163229519
-3.7345611338543114
8.986787223553641
-8.604484872715544
1.8459718173845048
-13.978733122567776
-11.973603683586296
-6.056111570563154
-67.7302229633133
-4.088116842026016
-9.094747860204604
-19.516114638343378
-125.22650017939362
-8.055746962524564
-1.2220165938070446
-3.0792781600979713
23.913283130353374
-7.287601845081465
5.170698536054381
0.8999005146038073
23.483623352273977
-8.41618455802995
-9.527387485351216
5.4063303770064035
-113.46427367641965
-62.199060726868055
-76.37284253400593
-75.69284571245824
-250.00308449968836
-16.767061234457557
-15.114622543761277
-11.80731208275958
-51.64702347812114
-13.827244913515992
-11.68226801909377
-9.566124684088328
-60.38817223323133
-4.698806570898075
-4.315513164576761
6.81545034603216
14.374502688463236
0.9077514150412378
0.5219250820411047
-10.207856285788333
-63.783245339246214
-10.129101154006975
-7.146200246089206
-4.63304509496527
-7.066009514784386
-10.15456107105651
-3.985419260653777
-1.3688415858645924
-12.563087157060076
-3.5084983727682175
-9.471528867147482
2.5319062557467835
9.197061193313084
0.7786537230030455
-12.175091858608294
-10.064142547302048
-76.22930394501535
6.670396752812068
-1.9732249032760123
8.972312776448916
-3.8107047832511785
-9.150295130714763
-8.755379248412682
-8.061197712780986
-24.588147163839896
-16.324027522088038
-12.008577029647624
-5.017301432367743
-16.627330389435485
4.403592081532276
2.7330298601295184
-3.2470517404671972
-91.85098061586817
4.72679648578747
0.8460600274154212
2.6217947034055205
16.389542593880677
-2.2852517600231583
0.4797088815460271
7.142159920739776
10.630434547188928
1.6438721755035068
4.847043444240949
5.8177414887168455
-77.9906174188829
-36.8265365734308
-39.09640752362189
-51.002263447582585
999598.1814151328
-9.619784012998991
-3.9978865097989034
1.7724649712459863
-33.19947013887312
-9.018240253794202
-0.6181203452182327
-1.728988532665871
-31.954379837102806
-6.903387103714569
2.1744732359098156
10.624049097645585
10.742246279498518
2.7484959123855988
-3.488803671817427
-4.630552257135437
-35.46877073486968
-7.859840361716083
-5.719386817659726
0.9359993642377185
-4.323721071468469
-4.69877493505444
4.936788105019773
-4.452443748788241
-3.1599659011231864
1.7940184177861658
-1.5765302347873633
5.541866423812831
4.196159830884194
11.945389291981728
3.5296012634190768
-1.8289336374088518
-45.36993812373528
4.367464138356978
-3.8227937261079084
2.1682405927290604
1.2983763533823185
-8.31404824407521
-2.8289615154030687
-7.741598706298416
-6.304773790791485
11.840342073344528
-5.930306902727771
-16.245172832531715
-11.705402886059666
17.103648896447595
-2.0035681475403355
-24.123193422957954
-19.974667803564316
-118.11676067131205
3.2994662242756085
-15.050668451442839
2.585342450324276
-44.60363093941219
-4.8257341611189215
-15.128299863177048
-0.546402768301146
-60.39884400843533
-0.31927370245847886
-0.860829285695272
-5.158011556864931
-56.30762481036262
5.821346287422405
-11.207267332515068
-16.457719420357147
-254.40216137005228
-71.37194246740187
-74.08788142724124
-56.14293958257201
-110.15854081988502
-14.061740132712234
-11.314013348352695
-4.399810827516972
-10.50609190633113
5.030286811718986
6.888714533074946
-6.559315973619768
-13.794661446260502
1.9755775351373317
-11.367403940224612
-10.720630939027915
-76.18795490136961
-0.07773009552842847
-7.922105849731064
-1.0744210749315732
19.105814351867657
3.176654312946799
-3.6466739357988907
-2.05738557006183
-21.062400460055066
-11.292535428548588
-5.533896301806337
-3.3924529130335586
1.6181842872735472
7.012048775696688
-0.45221064796062443
-0.6579373429689879
-65.31973544569529
2.793239477959564
-4.615983229239705
4.938291278272246
9.091081350070247
-17.333078653770688
-11.882340127328156
-15.45233457425243
2.9709107528119074
1.431696277628043
-4.329943845575413
-3.3188843566005484
8.111848109805624
-0.3861290005560018
-19.199657136468957
-9.393542212320668
-80.59813056542646
0.26565873731908785
-0.17724636307989614
11.080591218791405
-7.15189277305684
-6.483236102176814
-6.898607198094937
-0.05376888863274564
-34.333498090527634
0.6594985838375271
5.7494651615209
1.8263604649516259
-30.162387443445876
7.167367404449951
-1.0840248395362124
-4.835716774302089
999597.1979598575
-44.397178267027975
-52.55939331439833
-44.40344044083427
-90.77712826202344
-1.5679275957869756
9.983895762362113
0.5607448173578954
-9.383472542963249
-6.00461513795754
12.473856681741434
1.7158287820728886
-5.060069798652208
0.8706766892982428
-3.791714750215541
-7.081579385662922
-36.98118753604304
1.8685976239645248
-4.092980079832603
0.4050029688249891
11.641382216039016
3.6126522631298648
2.7443344051534164
-2.248171099543075
-8.324040466255378
-3.962542028740672
-1.2658574803772793
-1.3379452974821886
9.715340353228335
5.667295016666521
3.0375118057169597
-3.278690016277299
-32.25155494395963
3.265151172729066
-0.5000712690472707
10.57265411533603
9.232851235502556
-8.631257157310218
-9.406107337309068
-5.002831790750829
-19.15578343707201
13.83906400349214
-12.081722226964516
-6.43867084645012
4.195921145786161
20.190283543607265
-17.57993812155559
-6.923325599690521
-1.751688396466249
-93.32879402506565
-4.902611716868037
16.261494041201754
-6.352568054298308
-59.83024055028871
-10.155215960797015
-7.293758439985536
-15.84508170311407
-71.90089457221418
-12.022937109977986
-9.79973337124571
0.14505242849915084
-61.87592339765601
-9.225501065039504
-2.1254854516350887
-73.69273658850008
-248.4707750208311
-80.63726949316343
-68.0958842453294
2.31252081632608
-122.93598507602496
-12.43651547613016
-0.7591299306674695
10.833589110691099
-8.84855342473182
8.411371006593251
-6.842759634516859
3.594182816094671
-10.462080625972149
1.2649881517053962
-18.4210442803362
-4.03862532245181
-52.16814115575753
-13.400705689216636
-9.763364460843215
11.30081486078461
22.535183372359654
1.375744786167682
-6.357270028964245
-15.047766554032263
-22.47542780216661
2.7230289291909613
-10.66914791166462
-5.624479479111507
-22.14443702343784
-9.099809986252353
-16.829078595932256
-11.864808243578858
-56.104108052041376
-13.965048664706618
-8.780196791872632
-4.864210405229182
8.782330028436927
-7.323994034546526
-5.076011539440385
-10.013184759876589
0.7544182633568943
-3.455204367277451
-2.545540560879751
-4.871727798709039
12.89075538087417
-15.00045219219115
0.07436740221076464
10.677588418581436
-74.20073148070938
10.928012907963918
13.531377802233678
-2.2351254584820617
-14.292097289006813
-12.944132861782876
1.9667604545340416
-5.38498028652037
-37.264669005073976
-2.763315472389508
-2.4003933889880034
6.6251721020415095
-29.51096146045161
-0.5925110858148547
7.1986774274959915
-56.614448272775185
999595.7127594887
-45.6537516059512
-44.98865094271372
8.946035566435052
-89.93785499168462
2.8286084538711687
-2.5465363972599113
-0.18920659640795415
-3.2092051507427177
8.909738697079835
-5.982702705913444
8.555058272611591
-3.192959883501351
-6.230057150171282
-12.614976159118644
-5.0264986341955025
-27.455404888344724
-4.355935462704678
2.3999679372766507
4.018631770026997
14.586145599582185
2.0881790816050363
-1.8726023589633145
-10.12591290109587
-5.631115403051802
12.308447205993525
1.9329035855586874
3.651082175817874
-12.339546107888992
-0.4417777000451418
-8.531411540695876
-6.843671205673583
-31.69472647632418
-2.589965145005121
-5.203536731529212
0.8413207314148704
5.56642783194055
-1.0831415750742435
5.193371114847472
-1.6706575426783703
10.29060738812096
5.422179859037866
-8.152867998852278
-8.345767783681026
0.6348795165106911
-2.5359385376392054
-22.43486211941016
-11.911525470741612
9.081751424925924
-122.82744797100759
-9.400615307325417
-5.309640530597652
8.162059997164686
-68.70475803352147
-18.06485789209071
-2.084758461873437
-8.759810296444705
-62.69712788335929
-6.21148096706241
0.7326959472190079
-4.9671773088844065
-47.64476813384676
3.3501105239069595
-75.14804111736517
-83.09221154351212
-247.5820940378289
-61.25831575599012
-4.466226763642041
-10.376300359587082
-114.78473467308031
-9.347947140684456
0.7801862299764334
-4.026206744905695
-24.153251955671276
9.921967543903346
-14.342231977233368
-13.898843015009394
-18.31381554818937
4.104284085153992
-11.409481250132986
-15.344858505432413
-64.67641663842326
-2.4055898295873988
-3.533625832041985
-2.3468345149852814
2.0169441702458464
-8.712877197485385
1.196808301335791
0.5472753697262275
-7.212987903089501
-7.094605939973279
5.210182691208576
3.5818131501957047
-2.018068453113728
-9.596594067361458
-16.546805293605797
-16.952138211170414
-58.63803211513308
-12.107130587842018
5.1187046893060915
8.104790845153419
19.90091499994261
-14.253280660390269
-3.7814447760393572
10.608292614110784
-2.923724858293724
1.917959892060306
-3.890708856125864
1.8216242629092507
-2.1826406881125595
-9.581159870447438
3.726148433949331
9.875942071831735
-84.21831269592694
5.459424887268965
-1.0813626276681356
0.8957736076731508
-20.324831712121195
-4.100013531124068
0.040520130613564465
-2.4988505225221904
-33.86252134312907
-0.0241524912470513
3.9889046569345243
-6.403145196798189
-18.6711479132598
5.856754047737374
-54.24854516781188
-54.8722429553722
999606.172797085
-44.39326867168939
5.076076323925004
5.599938528550599
-91.12666010973763
-7.6153774376370995
-0.28153488755550526
1.2605208558648167
-5.057889070643881
4.139846588952859
-4.6583944619173145
-3.9787165266771405
-6.86447035966825
-2.761310478968124
-1.902808048120561
-1.1606970352461654
-40.69348504801365
12.56072465414628
-9.923993810911082
-0.6253568798501272
9.186127597188264
4.152308249873408
-4.184455753496002
2.5422851022362094
-4.7401914567425365
-2.854592030781419
2.440975193373059
1.3791458932355065
6.001838559771898
-9.519072494700605
-1.380743481456196
-7.730929295272391
-25.202898586880785
-12.20999454211427
5.445876593526039
0.6385512738678217
14.65419817648822
-5.187557706262394
-8.779870843660172
-4.769049415436276
-0.20272868518368092
12.140397679930729
2.9964771128474443
-18.124497436096355
-11.194474573079424
10.36941882104596
1.0805742820603386
-1.5946445575205659
-7.486245850865316
-121.29747373116571
-4.940621022680944
-15.254099169671685
-13.8641179568509
-63.43595007456042
-7.071780631568179
-5.210297993811766
-2.705993939063453
-54.18130796696009
-3.185753226234038
-14.109341401335902
-2.722806665816569
-56.48143868390364
-66.71603703151386
-71.64421780963325
-73.79533770583858
-250.63626517331645
-8.796675716381172
-6.825189525482066
-2.064247387472148
-113.17312416706821
-8.81479875867986
4.325107302372919
-4.5213338420549105
-1.9857816014648868
-15.700490743821963
-12.628802242310057
-5.736192813694667
-11.529521283737434
-13.345241587837672
-6.376690775787096
-12.90571059018055
-59.92487667477727
-9.040821868151623
-2.013633579166898
-0.32570363041069533
21.467305640677438
-2.011282194283122
-0.2252907994790651
-2.2569193244123595
-11.79824087354336
7.981502060309044
-4.71619713311807
-7.560988336752469
-11.126216149197555
-4.945521953746391
-11.471832730566351
-22.290453830473897
-69.42457611238324
9.28400972847656
-3.587220554540113
-5.359173037494859
26.71673604576866
2.214021937598572
-4.862266677211351
-4.694091611573304
6.644778208455233
1.8264882541899374
-11.331850179432436
5.764934284849451
8.90508915102863
15.592579648446602
9.505700568888768
3.6111104789528663
-91.0837067446044
-7.83397578400953
-9.451191338208554
-7.042449685126194
-20.383366901689048
-5.279226465285253
-5.741425179354033
-5.1418178044904215
-27.204481836492988
1.8094634717959344
-3.428895037461344
3.2009638905660323
-26.905579633365477
-51.80488014533191
-40.497668356026175
-51.628650982637375
999597.6094440502
6.357775904525681
11.524177850913498
8.859338298407408
-89.70148222169232
-5.521407423499074
4.192915389514263
5.27352500295318
-5.349099200739265
-5.435726248984193
-3.2178362649807317
-0.23670034048976318
-10.849886793222597
-2.5204555960330786
-4.096190988267176
-8.678680393334364
-29.755297993660538
-7.781460253312997
-1.8812099090562802
-1.382165538184706
14.046586260862707
2.567236324492469
6.509480764410653
-1.706339826074192
1.7487435526798012
1.8597918163423794
-4.031151141837226
0.4724715620554805
-4.747285721560373
-6.568303862567521
-1.495775480892606
-6.04058438687788
-28.174684926608276
10.655470898827796
-2.0061406389681555
-1.600303100273727
11.115962110778264
6.031415634778547
-11.695779750823885
-12.613761838695813
-6.724944644188239
7.944117929628131
-0.42969670524864667
-15.58816172460682
-17.885020770749463
-66.66511854973578
-5.6641892916817325
-4.014780599503971
-18.71370810573559
-116.83232369961382
-13.713452723796587
-15.42996242644352
-4.2130310015187975
-59.67978157120885
-7.925430582705085
-4.979282860707177
-8.644247512326928
-57.07699794955929
-7.3727159822950705
-11.06875693261552
-26.31525147620877
-110.93261952727045
-6.991145705288151
-3.8377082050419027
-11.196280851645916
-234.35614437689173
-65.99719449274444
-68.07251791824186
-65.50479695418618
-8.577713173548199
5.346845507491492
-9.122341213630392
10.762437032790034
-17.687130937080735
4.054590287097079
-19.66096494768977
-8.384752593187931
10.21431456741211
5.551069283210468
5.835272808720308
-4.5853234833370715
-51.57757830912919
7.317922813908818
-4.06576465463794
11.87040463387444
-13.609899494809078
-18.776958190880606
-11.027568828882048
2.9320106278854583
-3.996037184783164
7.366940588835069
4.234233572638183
1.6620985627668912
9.508884677142651
-5.129037798698506
6.717381767097111
-7.805081454365058
-56.212566180800025
-15.695985166897701
-6.053270431553471
-3.8791842231440308
1.1438566979854974
-6.748812819017313
-2.205369031850349
4.737886020810668
6.285239033964719
2.8992517928030295
-10.617270124243761
-6.088851564482309
-14.630079467166405
-7.581186831549152
0.21056078337226009
-7.752614272834486
-81.01410099097264
0.6338761399875276
-6.507339068314328
6.231133283589375
-29.36292685595657
-5.119710077240446
-0.24648338616107884
-0.5495943344621742
-35.89548995606864
4.909770536146227
0.31158081994778286
-9.306634409178635
-86.43332646981494
5.217347780352907
6.074588776550407
-10.831086871592994
999613.6897499461
-44.866941391921074
-44.46849103410567
-40.256855138202816
-3.378705878027474
-1.0299676359657073
-2.440672390059811
2.071524457575518
-1.9154157192427481
4.842529021882759
-9.236255655918942
-6.478636833892724
8.784945864889652
7.91413594571992
0.9966413720132852
-1.8165514722534273
-37.382668181335305
6.39567311423645
0.06261024652207514
11.823184619403117
-8.477332897723175
-10.749886411582683
-0.6616163030511352
6.725741647933148
6.448608829123617
6.526784658794585
-0.7001815352783024
-4.098218338358488
5.394029956197589
-7.043793028554878
16.54675899830117
-4.4254593928082135
-36.16788295104784
-9.854021388568976
-6.223915443498549
3.190192520735088
-5.926302831212231
6.661216094240495
-12.309496230005788
-6.512025985519354
-11.419422946629599
14.583747220006579
-4.700551373544519
-10.114779174390844
-12.471193834815473
-59.92357123516991
-0.5081027728078901
0.006829752583053686
-9.920529164581314
-116.11052415044941
-13.58324102948932
-12.162253321617467
-4.820244935007293
-59.947888647102744
-8.025845138107476
-4.063180754749224
-6.237944591274615
-57.07430837733424
-9.852358329786357
0.0513779713535282
-7.194043758540632
-111.22717557449683
-10.671643761567593
14.945521160986981
-65.80096232917089
-243.35037835172633
-81.92929384780103
-70.80792580949743
4.260277910539026
-6.610443669875925
1.5236034225847197
-6.406472396412827
-15.958121247277028
-3.393334519519541
-4.218859765901688
-20.183655732080116
-1.4624528710375764
26.277559265489334
0.2202639280142037
3.8443891636138736
1.4783984680517868
-41.85143914211559
-23.216164355602782
-15.700967521558512
-0.794587004075965
-18.537513285531965
5.122039594082982
-0.024557610647350462
-9.973194626912939
-3.2576655397655196
9.239041928982623
-3.33292173943223
-8.381079205906653
15.065740775204532
-10.993609271941972
3.075385103532082
-5.376805359905666
-56.449278014451586
-8.621217198313088
-11.50689087040488
2.487722456617588
-2.284014572086533
-1.669624100246477
-5.161285631453753
-5.1530101158189545
13.211239266012155
0.8169107086407933
-10.870197373576977
-6.270030370326219
-20.21409378454847
3.2733079714606452
2.651718754688641
3.4113937242442725
-85.21343094467943
3.747198540957717
11.1213311369321
6.003710432589816
-34.933634092111404
-13.204964348326094
6.267000894111452
-1.1616301472102057
-21.614484397536444
-1.7420065172492967
1.459296891541984
-2.9580312024115996
-82.27564302381288
0.960052608064137
13.964829854987745
-49.31075860153052
999603.1170076045
-53.12085930142561
-45.84324082658004
2.934882411843043
-5.152558567940236
5.298743800029526
-3.923797854223707
-5.416955898902257
-4.25428055296177
-5.204423610382958
-7.679396906445334
3.2161658128009485
14.814121690964765
-7.2397963249039865
5.164732792674332
0.6593588374071365
-31.528974040553035
-5.697787923031902
-10.293901495548035
-3.265561430777852
-8.211373567575972
5.4478051369342815
6.7191643579711435
-3.899842135944601
0.6971671413061189
8.30222985011726
-6.428511596185421
-4.456914104109796
5.91712772392144
-0.8974142140853585
3.8696552877804575
4.506138893903469
-32.5360457107101
-11.540999203746944
-0.30821014142020126
-15.74620899276104
-10.020327442645948
5.875250557613194
-7.841591090655981
-10.969875412143233
-4.6049170485943165
9.303759103333517
-3.7970982457273625
-6.542846285621382
7.347924846307799
-64.07076062233776
1.080793664209736
-3.916070766005079
-5.129850130466011
-127.64623598596701
-3.1371284109671067
-2.526621789917648
-19.148679536219255
-57.989867403735715
-7.679772517408509
9.660045791395618
-7.102531983088686
-44.00875696510182
8.158274862920093
-6.062081485695272
-9.258991008726154
-122.81257276511818
-9.126696237995901
-48.52098116456181
-79.8686712529891
-248.85310942265136
-62.8773416041699
-7.677294631093655
-3.937372207978264
-12.318945015394272
2.6278625291199895
-11.752468894213006
-6.4003293605631155
-5.228545725115286
11.90475172377927
-22.13651748125042
-5.836901853875649
5.949425092900634
3.1736032875558924
-3.976273940130884
-12.167575167614473
-61.52307220711152
5.040860111428526
-2.808593524946025
-11.308428347220856
-15.991423774651585
-8.553184189096807
7.951343206262147
-4.366320492451316
-6.019454566994959
3.390282716952282
-4.9607087172922215
-3.4835915742701093
7.783221700852933
-8.80397070697854
3.484389424781256
-21.211435173263283
-67.15938419956323
-11.67783801775649
-4.231226995138411
0.7498495138332879
8.536001776681166
-3.982230820588171
-13.561157433213264
-1.844254829204277
6.702054223704526
-2.8315925319455664
-5.336221955454054
12.33479780571262
-16.38783262590101
-4.40851348842084
11.929262949306802
3.8757204870188398
-90.03986961197056
5.08678616902165
1.9523009666761864
-3.550745447996342
-31.47070257867563
-0.7129109893046974
6.5103601603103165
-2.1404226098307197
-19.92338290803165
7.823570211700028
-0.0969598953718337
-1.4921859671405981
-95.48832242373754
0.7450696915264852
-34.74509223570521
-46.67139554654743
999606.3668289545
-44.69974242943236
-7.405667653835916
-4.709298697323008
-0.7638905777676052
7.6063313435118545
-6.731913877409803
1.4574527067730219
-4.131910346252878
7.798333836978788
-14.399467209028934
1.8083771843996268
6.988535499900315
1.5480142602725893
0.2241383126384066
-3.4149120435591467
-37.51084988188067
2.6883526063403034
-2.8339007909752665
-7.134449602948827
-13.313784534726326
-9.232789810994893
4.417075638854157
-3.307214444998529
1.843778296388258
-1.482459365479129
3.9683823274130425
1.4126385210597723
6.844845105265517
-1.7517689003314265
4.707676464945898
-15.795787100163182
-38.43504443458091
1.3372271957047652
0.5887877030289249
-17.684026540786384
-5.269741231157643
17.786529981705524
5.876992588039702
-14.774863878446693
-1.327564187574006
8.012085314666086
-6.6434168751871745
0.7051685582504893
0.29331569642673616
-58.35404839746841
-12.05228341698208
-20.475262134413516
-8.067525451376088
-118.56199845327734
-6.390559622815513
0.9630782136777128
-16.276721085828505
-46.14918059289155
-14.241057504163834
-16.24120118259126
-17.88158319640727
-65.73045048460854
-0.10458581529188879
20.529923898922263
-6.0126427367806565
-89.23017757360236
-70.65230791141164
-67.91729556868265
-76.17804882717307
-231.82846704511266
1.9104978655490816
2.2585975016873756
-10.95975532877722
-8.037025892514606
-8.630153814014113
-7.116560252319535
-0.2483112928516571
-17.652577836056423
-10.41898189080594
1.9521599329351644
-9.04244935501929
8.312402902464791
-10.474108816029705
-10.720324406904314
-14.24301878396329
-59.40721668053548
-9.487480779815533
-8.361442304487337
-10.349907400277086
-18.601185708141934
-0.42078146013563045
3.634025176837481
4.764861724342896
-20.00328895914082
-14.00190407852599
-6.056097235447277
-10.536040859018355
-2.2006474313771416
1.321832374617336
-10.439204288977102
-6.108106727623377
-64.86667958535777
7.479087740145992
-3.4440199999743326
-0.3883358283044355
11.165105630048528
4.850461566879269
-10.36212740663232
10.100133570287323
5.915111322700192
-6.540984962008583
-2.230732526367555
6.47776100853523
-24.854694204245092
6.144524617919196
-10.355903210737065
-6.515207816987198
-88.67686848091843
1.4562869240513099
2.32802788160304
-10.81102146994548
-25.389721116131582
-8.125149190259974
-9.023882911097182
-10.549106399587993
-35.49750883527892
2.490763284390565
21.959827312340305
5.0725160450779905
-76.88645986693228
-48.91871423913719
-40.17364064570627
-48.10322405688755
999619.5887956418
-1.1801573780017112
-1.0694743461829839
-2.494358945648154
-0.02231851848971304
-1.582833437719931
0.8686723949981416
1.407618013482219
-8.08711135419233
-8.2154918046854
4.412509269745064
-4.57498506438704
3.6390881323408513
4.461714454809673
-12.430860339116665
-3.75803744383727
-34.22743997559594
-6.592088086975693
-0.6695302627268813
-5.154557750933511
-3.5741646225847075
-1.4243351314391386
-1.0004117707211073
7.64232527355228
-10.610254141845473
0.6265594004913684
0.6443364555607749
0.5300898216006628
5.93616779340448
9.746634422780176
-1.5661298656589488
-3.3461041193974848
-37.01787053884651
-64.20673483347048
2.5138608032693126
-9.089844982501493
-1.3445844134080522
11.755513070563651
-4.82914088356439
-19.13920158987812
-6.433576234300173
-24.588704810616065
3.855535556487638
-6.018100908449625
6.559603750477157
-29.064473720363154
0.08533050233769192
-12.263037667514281
-9.86483198312162
-64.61898521318476
-10.446487069706615
-5.516040427387869
-11.085641134089679
23.318610274450833
-11.832993073527627
-11.47896174533922
-11.99723858614936
-15.172648497974027
-10.08957624159347
-0.6515468367866611
-2.5556046621088964
-13.184512783803013
-7.024715420851347
12.158677621103612
-4.094405420366574
-249.27443886755944
-68.53206004558186
-78.95385493401515
-67.43915354437736
-99.20970118851146
-0.5154620049963405
-3.6815329733184847
-5.115790634329997
-69.97043541281145
-0.7712661876473669
-13.903581031204066
-1.9848716913811661
-58.39041861323871
9.69783313158327
-0.5607077560364363
-1.9669669217548384
-130.3380328284063
-9.731780437678273
-13.364547244372064
-20.371789708874264
-52.711450900246014
-6.688335197139065
-5.578570947255743
-12.670765004364869
2.932133605868825
-4.086670214050772
-13.258985100213513
-6.5711341607289535
9.463862265442685
2.326031710761912
-6.305824559262396
-8.837030816800999
-33.53646266871721
6.229264407231151
-4.476725740414097
10.157155103272428
13.40283732978764
-4.876078993439423
-5.350245738683445
0.46482330108771197
-14.60688494380238
5.660172170053978
-8.11361672258299
14.38806773546478
-12.296462457798972
-3.2151795495299123
-8.485313033124298
-2.7155916725317626
-32.326496406933
-8.226451804180956
4.539341658555492
-2.8421031418669234
11.116004366700995
-8.326884289384653
0.10045413859816975
-8.3634800837549
-6.271743094378552
-3.9354755501495626
3.006187278676166
0.7992392121221931
-5.2704536123951975
0.4812763529617332
4.9550254314241755
-5.5092330149435815
999590.7498479921
-44.375378819731445
-50.61723386273679
-46.23540289172736
-68.72881862281302
12.598553191202676
6.592834528354256
2.188165667514984
-32.4293316485002
1.203160230106939
-9.114464805395468
-0.3420244505975835
-21.521072125247024
1.0484981958369688
3.1280290072652908
-7.299563146965067
-99.14117035769617
3.9032927455299324
2.3547736198713927
-4.198652432666319
-14.453661957383957
-0.5348763312221643
-4.588453562042145
-4.289678446577565
2.004366792990399
-3.3931943473171997
-1.5535998119951617
2.180899603505923
10.783437848501022
-1.2111120271155236
7.13833814705692
-1.3054381593728712
-19.69958500005853
-60.10750995745648
-22.756010818300513
-6.50157496096554
-2.2098402729086217
18.26598302287038
-0.6644385861217466
-4.8216244286123855
-2.2725241159449108
-11.938530846454276
-14.500589376970177
15.021543842491813
0.6926280129245784
-15.058983183434519
-13.843988409283753
4.611456081506782
-16.54063704629197
-63.29697535002194
-1.918880068564541
-15.852441635366857
-9.29697216664117
10.288632853336127
4.6092437927477485
-9.547133169332353
1.3613711219275357
-15.38875696222126
-2.9468572971022833
0.9859282217742302
1.6790436919499783
-19.956868094632345
-4.404282270320522
-1.9047708450739491
-58.94074612315309
-246.34726670650957
-77.64631067385727
-69.20188117393813
-0.4759087019108951
-116.15013335539778
3.224726254351384
-2.5096402339660524
5.711163427482966
-56.86420579690996
1.757418269714518
2.419715594856814
-4.261738929606496
-71.03411836084601
-11.88255958995576
-15.14944015339974
-8.996956724103583
-115.06015366096774
-4.02499261936318
-8.857004298898438
-16.104643394354397
-71.59253844436543
-9.110402183949343
-13.254354105950469
-13.214642277304137
3.793205236053695
-6.684034817392019
-9.762664952020177
-7.172464416778118
1.9405054506283137
-5.3857924241757384
-5.991676358022504
1.8389511742188471
-37.00466715461853
-8.714865301432859
-4.786639128554168
-0.7079594533601209
14.735995847055287
4.712895966168163
6.6130727391937985
-2.4203274278405535
-3.98050216502813
-16.28372263094318
7.338337786361091
4.420457853483849
-5.770930944155806
-5.253499499496656
10.680249571125593
-4.451932997753963
-31.811556274162424
-3.5796919975976733
-10.256730209158812
-4.433193056457313
1.8936295638661695
16.033366351689306
-12.325849219435925
-3.833143607326511
-7.668640139389379
5.72906853551188
1.2662385043973217
0.7905633455299773
-3.8694251982705388
4.188211986814791
-2.4176198960626203
-47.227488248940766
999598.56770043
-49.73665275004226
-42.605302801700645
9.211443370801728
-88.02449782589595
5.609875913665394
4.9217004488419045
3.5360892211196173
-25.13610191756316
-1.3090489884687202
4.253059243385876
3.0369953454374246
-41.577292577526045
-6.378846442645036
-6.668766466984236
2.439691368517428
-78.15705992525264
3.7892060590988423
8.356822388657136
-12.241122658401208
-19.63771190590179
-0.4741877018567398
-6.544831732152703
1.977258157915036
6.132324390628242
-0.4308683756969111
-5.632148382189693
-2.374684517736664
7.819739531398906
-1.7585234255922606
-4.771131688206829
-10.325588217823087
-12.464363646040637
-59.4603066613155
-0.18909485238283832
-9.65613818170664
-3.197055251063281
16.836540957129525
2.3714476133335447
-12.40825384155677
-5.085699076281131
-21.438805265215784
15.145147444993485
-1.8852627085924687
3.95106635998383
-0.4527141063954711
6.072498026898619
-15.616542597261226
-12.548820692810168
-56.627683945458884
-1.9111419165352759
-15.213358494282204
-3.3618373340976944
25.202108858719825
-0.7578437505208507
-7.472745314626828
-0.6053319872016065
-21.580580122797386
10.152918177577165
-11.208021352342323
-7.631043700909765
-9.794608730913005
1.3159153974444164
-69.05616221859728
-67.69549098573319
-247.22703348942397
-66.36682357314167
0.8000062896264198
6.282913044732029
-109.52504617241698
-6.235394409787124
-11.549899229749034
-3.6677342168121694
-67.9015656369745
-6.7822038383331495
-2.093263388480538
-9.528907968534982
-57.56414694144753
-14.664423304385574
-11.14230572923779
-14.917622314618498
-115.05175092392055
-7.442818345151274
-10.999893934990508
-4.640129091585361
-58.68900730750663
-6.500349229629246
-7.66390269729867
-7.631994688480168
3.271183401355509
0.8527159447864557
-12.890154891790072
-6.003642169642719
18.243685440721634
-15.156249627525725
-5.979946136094583
-0.2067467657185224
-35.09435493033216
5.3671840808062345
-2.450528921733035
-0.2530817551247633
18.165195099257367
-1.1223965973813894
-1.4448640568031976
4.20830261856076
-14.158193122546802
2.373595194057735
-1.2891266698538866
-2.364758827208362
1.8281746865872297
5.98161626152046
-7.2200277632212
-3.7036863131807665
-29.2687411785308
-2.1612870898797505
-3.26869392018175
3.953543871663266
7.696623074156788
0.271913021619173
0.7778168122966579
-1.4303869117723036
-9.415488434910849
6.758724850291813
-7.366600070425893
-4.760084257084281
-1.328797894978216
-1.2327481857100793
-44.34843167797534
-50.25577309978263
999603.572417102
-44.8149759550991
8.598516408306843
9.764252654875012
-83.75344493118412
-3.679455211825218
-0.9071202115544954
4.776820027013507
-42.104793884714034
-1.4680140059926905
-5.251499752544964
-0.9353321297487888
-22.861586283156015
-8.201870876077804
6.153657087590208
-1.4846728359183607
-87.33127893798225
0.15499692512848534
-6.514661965655519
-3.1092874011058806
-15.190664061509365
-8.471032361774851
0.5613563174816157
-3.5636321316913273
5.134433460228197
5.288595962472375
-0.6050140037209861
-0.5582745173792735
12.718735920824566
-2.399817284075769
18.24360395854615
1.875358249936919
3.1637720702023335
-64.86388274910611
5.6485010462284135
2.94871841935363
-15.323112647890522
7.862512542240859
5.698398065075354
17.07699858661069
-1.5279495279233561
-15.633019029179074
-0.03138523234606811
15.49524898033229
4.86535295203537
-16.195930732714988
-8.540210367905864
-16.621373313218903
0.1694786368898442
-66.60679459729418
0.09651138265149596
-1.7196156173138677
3.925763263665107
16.449002896892747
-12.123790290228737
-10.06302557214152
-2.3323850780466215
-15.081589296154627
-20.651299156966914
-6.7565783528033405
-1.095672411627606
-19.038320529690445
-59.546292910027326
-68.23017423137952
-67.97823743418091
-242.88128526494916
-6.051979501577904
-4.417066742468192
-10.594631193232495
-109.07549477987044
-9.372630548609644
-3.4650859135930787
-8.54026138703521
-62.315196243411485
-17.69469127448856
-8.417588650464584
-6.015909122148912
-54.561341922318306
-3.5951419576298336
-19.288034083668077
-2.0920517114163615
-131.25239049684177
-1.6224669693490317
-9.719394863609644
-8.277600635172423
-66.0939811716767
-1.9337097121479525
-8.412417946078367
3.7389461244613456
6.151677631896391
-11.945738238377196
-6.718764389032287
-2.1475125128131785
13.83006166874706
6.7839389597553925
6.618628966306184
-5.162544831087789
-32.46326069795082
13.6677249035262
5.188247184696052
-6.993770644279135
2.6921131630066517
3.775073335393451
17.479461530004478
-4.33967200618675
-13.712238233026302
-3.5903864294395857
0.8728884288022613
-1.3118047870314293
1.5805090980299883
-0.6429096446639916
-14.307174881376529
1.1336985107498256
-41.7354882166847
1.923704976395671
2.219736501105666
-0.70080769597532
17.540505001410292
-3.9001640570268368
-4.0712282372195645
2.2879218379449653
-6.816413870785361
-16.033748839462184
0.0820232742389307
7.456979817792158
-1.7927903144555029
-41.83578424553266
-39.158466601408335
-42.77697525640986
999608.0963848217
2.1642090279280395
3.6781622831749026
-1.2031424914650057
-87.55641739249563
-2.5673355588090168
4.4845761541448095
-11.842335232850862
-31.926561738974883
-7.844061526079846
-2.0792961371893397
-3.86036251106872
-34.22444339012489
4.436159553994463
-3.1649220641087505
9.620756111973714
-93.49814082237201
-4.929847634390647
-7.284274607442652
-3.0323561872812625
-19.490082785782807
2.483018962866606
-1.5803065679216506
3.4144238496475428
8.169171389549511
-6.909475748950478
-1.0125672947546196
3.796702796516128
12.522047469011236
29.383494217792354
-6.027003039904191
-2.1871214687908607
-7.844957916720139
-60.117437831332914
-17.74512672410013
-20.205206848859177
-6.200160418059549
-17.370282593482205
-5.886564923756815
-17.775621816542962
9.299919491869202
-6.243579569397738
2.8669697575177224
-9.580954090976743
-6.942232494315715
23.773032116612086
3.074653978938622
5.735111729029967
-5.748503014497435
-60.10388930354353
-18.53801248033791
-13.112503645988445
-0.7675653377475289
-21.37951217315747
1.1110517462700271
-7.641783504051464
6.4759963782177525
-8.571490813889769
-2.743521056430751
-6.922916558599369
-0.465934369692993
-113.2632198560567
0.5397390654065586
10.540348817897529
-16.434785035921347
-246.01089316246737
-67.26111400182224
-71.0395993198612
-62.08684016028686
-74.9078787060256
3.2508901432857473
-6.467347319271315
-5.421121287481858
-59.56379878159668
-5.528635526623189
-3.357054954819299
-8.768172231740095
-68.03182445024632
-5.7481646761599405
9.251083309763201
-18.80602226978716
-125.73287239703808
-2.846886640705067
-3.3999541988782322
-13.682011474279296
2.5353070411820013
-5.529847028597672
6.397999170655973
-2.41937525924896
4.05095437016494
-4.849891499528767
-6.334945675061398
-16.037797007907454
17.11328242674433
-7.2059280093982006
5.602707718857099
-1.350268896236301
-26.845495702647288
-10.38567307987209
-8.45420468734192
-1.5312872397246173
-10.598588382752894
1.5149485562828326
-8.604553109694917
5.357320434062141
6.139129524607061
3.650180382083001
-5.624292803313147
7.543319460883269
9.68332451920403
-5.752855340913596
4.171090339510742
0.3645144903315819
-34.00979445437344
-2.994973837800672
-6.478418830102282
-0.13792856904907272
-16.313445854833624
5.460526200164847
-6.548679170878094
5.0236099172552695
2.0489763136389
6.428941702287167
0.8651992383889385
-2.4887110173355906
-80.53056412162107
6.132894173570241
10.178312048575668
-4.082473296085899
999598.5837970903
-44.309533527866186
-43.846833858534914
-48.88997190097693
-26.6453707426515
-6.457957889104816
-1.3574755403811303
6.144699396001393
-30.09855561086561
-0.3444259283351656
-1.853919195304319
-11.151626716416386
-24.066315113032935
1.8260634126111832
5.576505350936235
-13.648500380693273
-91.93703728315626
12.024814936396718
3.3543056701417755
4.487511647247867
-5.980548059088319
2.918203631418961
3.1170977443104153
5.9135912589369015
2.368604489756186
-1.5672698872855915
-4.515873963007752
-8.79567032598037
2.083834442971778
11.274660844700728
4.250850898631237
-11.179299454889861
13.409813492534793
-54.147732513390345
-2.0022526370593017
-15.181258010491511
18.924862378609525
-8.990137880567637
-3.669221629610554
7.394018983879118
16.311532573582866
-8.426371779481055
4.900258631118379
9.884826363742464
-6.748165682268365
22.389409410229632
11.925740573017412
-11.821218940828103
-6.12473124720408
-56.69916003682474
-12.6326288870799
-10.621966899371486
6.318180912398844
-4.296147676260767
-1.903029459120507
8.821172250182226
-5.790492122647638
-12.560409094288488
-12.824622673931398
8.114941021952479
2.112704752513222
-108.72046979648765
0.412817034525241
-7.888907684544701
-71.82208061826817
-246.5917308309935
-82.79579745234064
-74.33809404650324
-5.476705229165772
-53.86918533730185
-7.062054341429488
-14.11733937292429
-1.9911213122250646
-63.480866150213956
-5.8547798236842645
-6.118689091360002
-16.97766246253625
-71.12386999189826
1.5118685562424599
-11.80010615909328
-17.1648367122576
-123.73585782043558
-11.23126938769968
-16.549463706705918
-12.053125057888689
22.711254020329804
0.21561791752746634
-1.8304777685980174
-19.1621511768093
11.669240626030135
-11.869430684036523
-12.334124485064578
3.811716426185811
2.2632766936428252
5.801865850014649
-3.5431981308809695
8.39878786835778
-31.627547332284607
-4.34763672583612
-1.61599566751528
10.353788692492909
-6.86759050925042
-1.4490403507657013
2.1048302898350304
19.883642144644725
-11.106514727306822
-1.9260948465145928
10.523444973473984
-13.069518936201332
13.849968838821523
5.306027081115051
-3.9662111865559084
-1.5315623633310567
-23.74149552963025
-2.3031862002044434
-10.118685197127844
-5.372767806878266
-2.3935906706118604
-2.1790130958785716
4.967186828523628
-8.46997404398943
-4.228602562078205
-2.414727602365636
-1.193957164462664
11.1821653217595
-91.1410627883644
13.263590698449772
4.996490174607238
-43.23395905222415
999602.0309250904
-56.72263023001756
-52.26533555772704
3.190763656237173
-32.36791245706519
-4.884350629009999
-7.413543529776956
5.332855801424934
-29.321190048593817
-12.78197718190169
-5.7875169341816015
-13.618097801615164
-13.872216689886939
4.009937319485489
-5.818227807255111
2.0783865912100876
-84.72502436904182
0.20483658071557367
-1.466258079297921
1.4292628999579973
11.461937695592185
11.169000448588486
3.7640624254428974
-15.27813838958504
2.5908120638055028
-0.34715793449610716
2.118014276671285
-16.69367815966817
-4.438840299591132
24.07393100074654
-6.370089212718476
-5.329280438553024
-5.180057481794399
-55.3372836104185
-11.322825919166569
2.28250663321673
1.9176013513566663
-5.477603941778893
2.7990776429323407
2.004288025110769
-7.476611691254338
5.656001145940828
3.1844841051106725
-5.9431870415988985
-0.6799283612269428
22.728996370623506
-2.1349743556150287
-3.1535148772890205
-10.788947246586298
-56.99795316513846
-9.69097417437744
-2.1234176086785137
-14.243420443930678
-18.528938581064455
-0.7487544380784573
-9.170237236132023
-27.352457994518318
-20.091291318450995
-11.517184925260246
-12.906196250912483
-2.3245706292128747
-114.00492228253646
-2.0498449592372054
-64.52832154892194
-67.31442462827322
-248.6895767188572
-65.0887706298768
-3.1293243227096355
-2.730203467511493
-56.17157051149664
2.9449985101628817
-8.068617865114357
-10.447822872811562
-52.468822851509614
-0.7234062885912194
-16.759588933766064
-8.650508887809753
-53.1831194660477
-3.501064174489946
-9.280533276037994
-7.875685459659153
-114.91831223757129
-4.303825874268566
-17.18239954738085
-12.973086069370126
18.094980747996154
-6.549038376517215
-13.924034193681473
-13.579511849535812
22.65192889894698
-2.4361013326078145
-5.907736357244565
0.8587024672403719
14.588222266782068
-2.74399376234975
-5.189118750013235
-3.1053608982182337
-34.19974322266742
-9.996972104821598
9.300150535792392
-1.1321999817214137
-1.914989923577368
5.627575039085095
8.237394994873407
2.072303148348375
3.0984194944745442
10.920704628196452
-6.917109684964222
-1.3629183002631844
17.99520738028816
-0.4425714359558483
1.8842572169486977
8.181670867520225
-28.467839197738904
-2.0478234997807934
-2.1980401504047458
-5.327251406049477
-9.6420258181473
-0.6685816753523198
-9.925827472483261
-13.926191307826953
-13.104250534608768
-11.497631187167723
-1.4595136614350748
8.134252185768439
-88.98148115517787
3.029994125016786
-43.447492563262905
-49.181843417088785
999596.1899858323
-49.00168803884547
4.2321926739991635
10.022314740270213
-36.641754147758256
0.720025286837615
-2.579463296642993
-0.6541784230069025
-25.347854846742152
0.07840342481488588
-10.642527718709774
-3.7902475369843245
-9.861364309822106
3.1500689273450644
12.570015063600229
8.015502508657825
-82.52690066603505
-2.9158186096206444
-9.55560585031062
-5.859207689731147
1.1199199850550141
2.06547027845331
-4.87141323310381
-5.150351810364944
11.661976966023081
3.387733214263254
1.875879333811607
-1.5049139092610861
7.203388076203592
35.89729434077031
-3.3902894480744767
-15.769490017701331
-38.45347514652953
-74.21685618836267
-0.8231796018207107
-2.530006588880988
-9.514667253306843
-16.137942577074874
-3.459498615875052
-5.979200277030359
5.028055317776484
-16.88228736252996
-13.75796924599593
-2.084456456139801
-3.307809096144377
23.14925814307366
16.453583602483892
1.7093804850303693
-14.116916066807947
-55.428130757437536
2.9094478607792382
1.442139140439131
-0.9592713565219375
-16.93302528999014
-4.286371523191836
-6.1217172872556205
-5.704510825708398
-9.55017250194215
-19.780616516241317
-13.733798599205876
-11.186478765667935
-107.2007884293712
-49.199792507898536
-60.41354639723442
-80.3547515682287
-242.38840891303877
-21.55061885902583
-12.502855091900953
-12.664425767941129
-65.05346834723629
-13.939544900773917
-11.762971806629672
-8.394937545072581
-56.91393559545383
-13.20550902965627
-3.887169357229095
-4.28228844525844
-56.30425037326296
-1.5441980858585478
-10.295945304774293
-26.515666619625907
-122.96845291891046
-5.374543396523779
-13.714225042944026
-4.053241148083429
19.136484704289433
-23.360863576634586
-12.697560491660857
-9.71589245556999
11.010217294459617
1.540732073467255
5.550638355973288
4.083247051228684
22.428500264472465
3.691294961495098
-8.038763692246253
-12.709449695134884
-40.26559099388806
-1.8531990960023015
2.5126888942050405
-2.3006877546957494
-6.242985258376128
0.6910660452600705
-5.514648387231427
4.470560488295162
-0.5791047048258358
-6.130996230928309
0.6225232611925201
1.212322032606671
10.468825926891954
8.158961310162859
7.201345296834886
-7.351691668045822
-29.783157905674297
3.290122238634963
-0.31429327532736995
-2.459370181543452
-5.910117203785526
2.8572058085636223
-5.090276246486444
4.321080499988954
-11.894561952134916
-10.666161805600813
-0.38305459869936737
-1.2919148612602707
-82.08244550187372
-29.704719415497177
-37.86529353295197
-49.89969671990404
999594.9658799765
-5.16015280831637
0.4335507805109444
-5.806530497370204
-31.001072369199914
-9.76543703032506
-1.9223893662323226
6.156904752453867
-30.176184745128747
-7.377709916442768
-9.07872361696056
-0.5341412045764019
-10.461419455934191
8.91443438302114
3.9998206285797475
-2.410928702964368
-88.42327622662238
-7.0660565595826785
4.721467154258388
-0.297459285425893
7.676692295199455
-7.323480763456979
-9.54277779121016
-0.20552833989335365
4.656423289461861
-10.866042638609018
-4.158189019534779
-8.287505513885444
2.570404483106167
-12.904205729319811
0.7821115288562153
-9.496875286750027
0.26230929627391436
-54.05175242256262
2.2692749474780665
0.5365028233219707
-1.4368312749383243
3.3842089399247812
-6.542028272538744
0.07222467001593616
-2.5894182488552224
-15.620614974556732
-4.447260752634867
1.1553157746397757
-1.4736919576894565
-8.61162717579057
-6.006254194414975
-9.886101550704634
-0.8532543307289164
-49.417995431972045
-18.14737916325911
-8.105435380179802
-16.240644658835603
15.444638984355851
-3.2897030285997246
-6.191373446382833
6.750996054401711
-53.72352166085481
-9.064260627113248
-2.139123811350552
-5.96855483950887
-49.32012691152076
-8.554970356346676
-7.478531746055509
-6.718510799723382
-238.4365613370574
-70.5110415075003
-72.93096000206992
-86.95169428435699
-113.5090418369248
-7.400280218424665
-11.003075568832879
-15.642435088110487
5.016872248051807
-15.999933120402302
-0.8692228513927848
-17.337478224928038
10.849562472509747
-6.940124908855552
-9.871264120222719
-0.27539465690919435
-120.19776860719388
-15.126579169593063
-3.078965810035544
-9.960146017807899
-67.90109639536641
-13.69776440080031
-11.462914781328458
-4.338541347469177
-11.586303163954579
1.2263037346868568
-1.7658877886376698
-2.243731989916806
-8.947894060629979
-3.3546437424507825
-2.013387704214078
8.0350664407157
-21.694550598027796
-1.4835307345753463
8.79188836909825
-3.259746526407033
2.2393548773600793
-2.6355639469277974
-5.09591559765448
1.6419750927549965
-7.554301747382232
-1.247529477750722
-6.826835239592445
0.24800056124790282
2.7320370373970184
3.7742555280631507
-10.644571585090704
1.9466240293247792
-31.55901664538291
-2.3395125679337228
3.4012074530745626
-10.152667500770924
8.319312774010323
0.5119538808928299
-1.2664417970947208
4.295311525977615
-24.639388492447445
-2.7949652834923673
5.006231286611321
-5.496193348709888
-26.313515685781134
-1.3199656920444385
3.901578410633859
-9.699915780676395
999602.6963906495
-43.920158634148954
-51.95265492532278
-55.6186056385563
-88.04327329057888
-0.5661184744597603
1.735520339751537
7.908786248410742
3.837466265275154
-3.4944348697513905
